7.013017667325533999e-01
6.597038031632359578e-01
1.242258546683269627e+00
3.137611156856040528e-01
-2.187847770129432157e-01
9.461707594160074786e-01
3.824376881352552493e-01
1.040101228146767642e+00
1.306188085713170521e-01
4.614789473467967307e-01
1.411666064460491421e-01
4.066949952932000234e-01
6.275703376652920218e-01
9.957881470726727136e-01
9.135045491890906311e-01
3.188858864382501102e-01
-2.057947749274975369e-01
6.817751791370403325e-01
6.131560739032663188e-01
-3.812187547885406702e-02
-1.140527336352030879e-01
2.921066012042367044e-01
5.169722583442242225e-01
2.297707185666508500e-01
8.001144437843672463e-01
2.914144795119807951e-01
1.011224527636057635e+00
4.413163471613754663e-01
1.429504606915918297e+00
4.511907494886293613e-01
4.511901138281124712e-01
4.912794611188132654e-01
3.171457952615052301e-03
7.512980442284054039e-01
1.663520413221656780e+00
1.320364750006252530e+00
6.344769445282045783e-01
4.513570667646644718e-01
1.488319430052531311e+00
4.631525767360473167e-01
1.731009896538289849e+00
6.082712580279228121e-01
-1.129199105047678231e-01
8.499167632262251137e-01
1.398196757359923659e+00
1.192241040920254180e+00
4.115945935931635824e-01
9.007006060795570423e-01
9.602547464102130226e-01
8.184490207833594599e-01
5.322757139163508677e-01
1.033896656951699633e+00
1.400853463513184627e+00
2.487655936180787897e-01
1.795220269003620639e-01
7.376252473896832695e-01
4.096345695671487763e-01
4.541299439133208438e-01
1.909302533229264354e+00
9.230272947684160789e-02
2.439479753783821148e-01
1.571666182322392080e-01
6.479188382505229882e-01
1.086833435762264655e+00
-2.674321785158343956e-01
1.576011284796544343e-01
-8.326532510604943427e-02
8.255834958969850146e-02
6.772301651629131225e-01
1.058964391023550222e+00
6.439248152330648844e-01
-1.536981489810866630e-01
6.070438236800981269e-01
9.757744577792025753e-01
3.127559168567788372e-01
6.047154699753738427e-01
2.869303606136367479e-01
4.344285805322900540e-01
6.379816522060162143e-01
3.642449702823047919e-01
1.517216452447873953e+00
4.983496254007320769e-01
6.605377763427331406e-01
6.447101414570962641e-01
-6.436225084110024086e-02
6.769013573998432509e-01
7.030290495688377161e-01
1.018099667642875961e+00
6.283207259528426070e-01
5.974264390114576440e-01
7.320246242678590809e-02
9.921475598244198224e-01
7.972442623802542538e-01
3.265770275885675478e-01
7.146736947645709881e-01
3.211394385370437421e-01
1.479619414001566158e-01
2.050720081217758395e-01
1.412268303612530751e+00
1.070816624076850188e+00
-3.982044879854577668e-01
9.620415081787099254e-01
-1.438696739983762901e-04
4.279162820804690015e-01
-9.041641759514759680e-02
4.951183409989219353e-01
-2.070367350869770084e-01
7.335523585956693626e-01
2.533611712200238286e-01
6.203024263835941188e-01
7.687328550353651480e-01
1.010531242936454133e+00
7.729653306898783827e-01
9.405799157412154665e-01
7.974282826422800924e-03
7.206784228700956474e-01
3.124007702532256014e-01
-8.738738372363696882e-02
1.345407293833326134e-01
5.607867187572621592e-01
-1.521073502233320079e-02
-1.071177666221783675e-01
-2.460996348321991267e-01
-5.051241767154162066e-01
-6.029221845369938659e-01
6.851054895985000948e-02
3.285263459154721954e-01
3.559879695383199039e-01
1.737149318301864920e-01
1.435437799316180082e-02
-3.199059864288256727e-01
-2.591594038792048860e-01
2.345732851939342500e-01
-4.199704354715959598e-01
2.373319995658666748e-02
-5.373063476753098255e-01
-5.602481216591728153e-01
-3.201045772935900979e-01
-5.788702883917894448e-01
3.778848509549384560e-01
-1.868363923841230290e-01
-1.840871937686910653e-01
-1.498636391594328210e-01
-2.759893402691310782e-01
2.620929388633442755e-02
-5.420846035746701430e-01
-4.041284519144895948e-01
-1.127018291355796203e-01
3.312447294062483283e-01
9.933996179869265808e-02
3.833844807223641404e-01
-3.646960754498401736e-01
5.496998358727438888e-02
-4.252313018564074509e-01
-5.305775381232351595e-01
1.454833600916178027e-01
5.105835053228722359e-02
3.766517602636495349e-02
1.332121244652957892e-01
-3.565296581614291888e-02
1.610525993989491700e-01
-2.590213518452013641e-01
7.105020130637377251e-01
3.495405892033993656e-01
-4.423207709033127183e-02
8.038497815051923734e-01
8.533994613061415269e-01
-4.987501957011765408e-02
2.181498026466071327e-01
-4.985888822287322386e-03
2.583296352115107553e-01
3.676687329632958301e-01
8.778811482914403164e-02
2.844335192087366626e-01
1.159337641054225543e-01
1.244273935060739300e-01
6.885392033142098134e-01
5.413403357695633078e-01
7.541371433949596303e-01
7.656782704637089543e-01
5.712452296879099167e-01
1.966486259954025040e-01
4.728532003423551733e-01
1.419229379768024435e+00
4.194108548764199917e-01
8.172778241571537761e-01
8.806603255050009516e-01
4.423446924804854685e-01
8.998228032486729200e-01
6.460481447183407111e-01
9.337463007850884678e-01
8.853044465144964681e-01
7.557447116015338917e-01
9.809210901435553298e-01
3.912860324389127453e-01
1.240952375865774560e+00
8.173155433356691368e-01
6.672060472076791759e-01
4.074639362923894725e-01
9.350529247426430102e-01
5.410671067186074712e-01
5.180828937192761829e-01
3.514071453873747197e-01
1.141306365476677076e+00
3.965695663360334633e-01
-3.281472606958952820e-01
1.062630279102140529e-01
3.492367462956170177e-01
-3.005329958261455658e-01
2.913726456538006659e-01
-4.368012546817788833e-01
2.130560950401115816e-01
2.295784622890037208e-01
-5.696773277461458784e-01
-5.152565129449658832e-01
-2.657159241376764736e-01
3.994730994327636876e-03
-4.276475019697842384e-01
-5.829191612198851569e-03
4.668871111082915221e-02
-2.720726690422308747e-01
-1.554897231105965560e-01
-8.031023579863395823e-02
4.441770872657394564e-01
-3.504022064388211399e-01
-3.453421486973074495e-01
-3.876973026838385072e-01
1.693619037836202046e-01
-2.979592365846666091e-01
-5.258564619218935032e-01
2.653809920743760431e-01
-2.843218274093792589e-02
1.883586494352412072e-02
3.877891528309350324e-03
-2.025978385306594423e-02
4.933760865752985780e-01
2.192033309475649450e-01
-4.709176535457256785e-01
4.065159589838892029e-01
-4.887663121313441383e-01
1.178128564383123800e-01
1.206999260824107162e-01
-2.515531539860741961e-01
-2.288743248227540217e-01
-5.074847641285427091e-01
-1.437648509288573517e-01
8.743474933027562956e-01
1.203601346133096550e+00
4.412785022448010297e-01
3.991822712295295950e-01
4.243090326113889699e-01
1.224801319025818236e+00
3.127156384979961623e-01
1.005664625272734369e+00
7.247639997475568974e-01
3.660086450350975018e-01
4.462685432573080813e-01
5.527037940095101964e-01
1.270339412331784823e+00
1.278271961553743896e+00
1.086744781421604022e+00
3.731434708807989109e-01
1.153837828811000499e+00
4.127178076595354184e-01
1.210414193568208008e+00
8.477634218032138458e-01
1.025363034801237028e+00
2.746375022971097105e-02
-4.086571897429037703e-01
1.301254557216386873e-02
-1.194596157363697203e-01
3.007880058108099997e-01
4.390902940348283268e-02
1.359598197057680091e-01
-9.435171426885180512e-02
2.607419981292445343e-01
-9.458763203131972941e-02
-4.253148174718718866e-01
4.395007184445316462e-01
5.013517186226898806e-03
-2.941340472437868527e-03
-3.820952446492036358e-01
1.712066533043509475e-01
-1.467281823856257938e-01
-7.775596120070020489e-02
-7.768995058032023004e-02
2.229352870993814295e-01
2.957858316970626289e-01
3.313022019066529933e-01
-5.200354645906598572e-01
-9.054111416545769508e-02
1.147097572660495390e-01
-2.308612301561111801e-01
-2.323013823279674595e-01
-1.508390815480724623e-01
-3.599960916458596616e-01
4.551872156076385845e-01
-3.715369297873161725e-01
2.260471972006646568e-01
1.939978757742669424e-01
3.043149459169396109e-02
-1.646853774318889907e-01
4.226381959057179949e-01
-5.483928218554281475e-01
3.975099667455700980e-01
-5.741470153683468913e-01
1.046407733979674293e-01
-3.493113784947797229e-01
-1.693610759154427492e-01
-4.803034876813724319e-01
-4.833024449604113038e-01
2.708652523292215952e-01
3.509840141491830656e-01
-5.231773198742920572e-01
4.646746678065369895e-01
4.621103638157333937e-01
-2.075215036314973782e-01
-1.249957688094618657e-01
-3.772747574936359261e-01
-2.314348883872331328e-02
3.429726806512137238e-01
-2.766959285283104308e-01
-3.557193408698005044e-01
1.186685867217110585e-01
-2.230040491645721989e-01
-3.675278103825917464e-01
1.136143288561674430e-01
4.186131353365957208e-01
-3.526835403807974112e-01
3.396518189467209736e-01
-3.275407694156438621e-01
2.568953835830715127e-01
-2.750942631224625318e-02
-6.191247006428514388e-02
-1.952519633122027920e-01
2.691377342495792843e-02
3.781090864546525210e-01
-3.059797081985392575e-01
4.084647265558745133e-01
-1.352357488816108289e-01
-1.582753144807631795e-02
9.952973473579004859e-02
2.815539665366244004e-01
1.219696952618758573e-01
-3.976805883811999065e-01
1.766264211015078356e-01
1.109339054587254458e-01
-7.291806620387558668e-02
-2.628615960717743949e-01
-8.765780678250416347e-02
-2.964455508780480253e-01
2.804196957572736570e-01
2.272626947759403271e-01
1.467987625964869702e-01
-2.122922469826124259e-01
9.815954132869911253e-03
-5.140767412070315068e-01
-7.455479892350997950e-01
-2.603627638567985736e-01
-4.902967744859347277e-01
5.154370938553015820e-03
-6.165458956699210180e-01
-3.020187288066061293e-01
-3.835611569117871600e-01
2.643553818142077017e-01
-7.475404340607144649e-01
-2.155317232294667595e-01
-2.540665211179938265e-01
-3.660909180768404658e-01
-1.085928572808144976e-01
-5.664402374181592981e-01
1.267920331381653665e-01
-4.899232232552923616e-01
1.515782722592389116e-02
1.798590577171001736e-01
-3.387322154579351929e-01
-2.169423759575229704e-01
2.800735014788729438e-01
2.175539247342862803e-01
4.304577812729452058e-01
3.508119400736653959e-01
2.796248068432254374e-01
4.742653630907606721e-01
-6.116450956064108796e-02
2.802054195910413381e-01
2.675583196883666859e-01
1.621892463362585024e-01
8.740279983621612736e-02
-4.221266458222713291e-01
-1.428556803939270807e-02
1.816562709931514308e-01
2.395393577011320774e-01
-4.968339510181163932e-01
7.758748757719924338e-01
8.025035688781864129e-01
8.937445947213867870e-01
1.047300046968696385e+00
4.388381619450735793e-01
9.067894490645779237e-01
8.887845158278173674e-01
9.366528604780228751e-01
5.612240041540526025e-01
1.252612763290735343e+00
3.891874703913577038e-01
4.961770575206532197e-01
5.882540880172333342e-01
4.657831129934363878e-01
8.332521084307916714e-01
3.306005412654605125e-01
6.230119334546351251e-01
4.983771332480004257e-01
1.217779396548786641e+00
8.718092615116588284e-01
7.724331785757030389e-01
-2.310693465550257009e-01
4.294196974695622671e-01
2.173953029567775863e-01
-3.859471747518020135e-01
-1.278341671977973326e-01
1.313080714490612588e-01
4.666160399304070672e-01
4.976434432073549574e-02
-3.683838395491633722e-01
-3.601198892190041745e-01
-8.082097707358351646e-02
3.941741721849478797e-02
5.020428894305457579e-01
3.785141885164863829e-01
1.693181054572971134e-01
-1.367302106105983683e-01
2.933348968598165629e-01
7.303550659373665710e-02
-4.253642152169292111e-03
1.236100142505263261e-01
-2.553951435491046973e-01
-8.533513480819832075e-02
3.325089765953094800e-01
1.593151670480903379e-02
2.685833874470372473e-01
-5.575438718381632297e-01
-2.016949060908515556e-01
1.675132213398149994e-01
-5.031939813729887495e-02
-1.743917290525708874e-01
-5.148509335478580751e-02
4.117675315817492243e-01
-3.578740202008465210e-01
-5.751979845686647774e-01
-3.902518789588307335e-01
3.077202415850467943e-01
1.378518040932754651e-01
3.537160465392028431e-03
-2.470890064010658194e-01
3.689173841658009989e-01
1.985552126819794261e-01
2.082688892712442064e-01
1.689878271721393654e-01
-2.665331207353855980e-01
4.771619370841562180e-01
-3.421769024177917506e-01
-3.911937916344804256e-01
4.615842754331680453e-01
4.423671118951242320e-01
1.931444464460387034e-01
-2.468270454101381961e-01
-4.107863517555633837e-01
-2.601570794155894442e-02
1.784719386559119048e-01
4.271170995255626490e-01
-1.110947394625498019e-01
2.833004647414855692e-01
-2.085942169595847162e-01
1.964721589577880234e-01
1.859495420462761173e-01
4.845147468198815477e-01
-3.926015455402975807e-01
-2.530858393979476539e-01
-4.892941005857445735e-01
6.033123955332861943e-01
-8.123060584228639081e-02
-1.576682324000426016e-01
-4.765089122360833818e-01
5.988568359501623695e-01
6.870810911711466851e-01
-2.541687254724658285e-01
-8.241062625918005313e-03
3.728009197093218874e-01
4.069773079986598874e-01
-3.179180361896365159e-02
1.156284766780289741e-02
-3.795786893279275986e-01
6.977809374359610073e-02
1.304012947914454934e-01
-5.766031762653183596e-02
-9.869983604635450269e-02
4.610857255047872139e-01
-2.269745740392906663e-01
-1.383585962492671628e-01
-1.822837934671069915e-01
2.221517440584990510e-01
-3.308599587514873264e-01
-3.561735108857375792e-02
-3.331008186853885999e-01
-4.185331779995956070e-01
-2.691439694193715204e-01
3.070987370618514789e-01
2.146060134890270255e-01
-2.834624413359379536e-01
4.024145454800805849e-02
-6.407180037098163528e-01
2.655637142990721067e-01
3.452478545045267189e-01
3.802550004478998935e-01
-4.387637098469495678e-01
-3.716490686755743456e-01
3.369655441802354434e-01
-1.951016360798427107e-01
-1.679018952865629632e-01
-2.733546445460546814e-01
-1.301386164495815234e-01
4.336849083929012610e-02
-1.975729554589334414e-01
-2.669122544498465643e-01
3.446579249436341752e-01
-2.423754585251770843e-01
-1.035267643671928389e-02
3.750920837772361155e-02
-5.871818764170359112e-02
-2.909839496758840349e-01
-3.180799723575594620e-03
6.202944076448156929e-01
-2.007552856703401223e-01
-2.647896905150757263e-01
5.455684376601969143e-01
2.330786407325570464e-01
-1.447449539060564894e-01
-6.005033007134716327e-02
4.338359583623876969e-01
2.121943977087575595e-01
2.412621992723327502e-01
1.601167763250280207e-01
4.633683681696833534e-01
6.388231327177286145e-01
-6.459136009154178848e-02
-1.832306965329310033e-01
-1.571957514328923416e-02
5.821923964929214268e-01
-1.660111319483655312e-01
3.032837064589279444e-02
5.307395562326031047e-02
4.519936036725631934e-01
3.239789360026337217e-01
-1.346600685350444748e-01
6.138340012432313975e-01
-1.740851418793319949e-01
9.804713787754973722e-03
3.487570836831015431e-01
1.061186366340329847e-02
2.264775027594199130e-01
3.729682170454970414e-01
-2.325447739772646197e-02
