5.208224158947915017e-01
9.525945180533209600e-01
1.035368165336628454e+00
5.255644088561750582e-01
3.840396292229649733e-01
1.291610587603948535e+00
1.881124838218132533e-01
1.326512228281280015e+00
5.408154201708277320e-01
6.328036355889317122e-01
6.531183573917502816e-01
7.433870542120619707e-01
5.307447602324779634e-01
1.185939700363153548e+00
9.545269057201449803e-01
5.151431789169501618e-01
7.426172575803311471e-01
9.184715043924532862e-01
5.177441506942092042e-01
-1.146285980678695728e-02
-5.262515290039838228e-02
5.052800299688163799e-01
6.760602088723997038e-01
6.839443138173788572e-01
4.518888360766826207e-01
5.633863901118819628e-01
1.124562213378586861e+00
6.125317933203393572e-01
9.017801215343435040e-01
7.442767873266765699e-01
-1.811572999597031997e-01
6.904408618807578168e-01
8.403511616408392282e-01
9.956887825184700391e-01
5.412379104727589318e-01
1.351856041954922816e+00
2.853487220269908531e-01
7.766512159917162705e-01
9.615235514314551812e-01
5.894678875047429933e-01
7.033586845599130166e-01
8.943475355882360978e-01
-4.003929371338839638e-01
9.725936534195328553e-01
9.580051807622282922e-01
1.241939540553568921e+00
4.021541666291930106e-01
1.011343277968734800e+00
4.335585809117049050e-01
1.237946830356898120e+00
4.275567476883694873e-01
1.206943202412589011e+00
1.221484747964131090e+00
6.900869389241317542e-01
-2.313205010847428078e-01
1.051921611577103510e+00
6.947226486193150974e-01
6.855128601466835558e-01
9.861993265547599474e-01
3.905997622748542120e-01
2.886003747967847213e-02
4.614378899619892560e-01
8.230785589593393459e-01
1.310865093231606826e+00
5.644477830207509372e-01
4.926936465321583580e-01
-1.289515902486968735e-01
3.602009588476505764e-01
5.678446009362252411e-01
1.181144897435000729e+00
1.081532401161426016e+00
4.886638178866257731e-01
4.932138989570225562e-01
1.156647001530781704e+00
6.578279861036309129e-01
7.929721692575810721e-01
6.231098606199230172e-01
6.371266459296903717e-01
4.074529151489483803e-01
5.838577795673550730e-01
9.954765202244358901e-01
6.201922892260469666e-01
9.535986450169550155e-01
9.148218484998493771e-01
-1.291588970009296122e-01
8.189168225138433455e-01
5.620440107695201526e-01
1.138086038811577660e+00
9.657253496118867186e-01
7.468742513284033491e-01
3.488852649959896246e-02
1.111079252470287049e+00
1.047348874735728019e+00
5.069349267224294575e-01
9.176560562437225954e-01
4.404683234909800293e-01
4.352505014923835347e-02
3.873457035367143253e-01
1.233424909839278882e+00
1.229698776417855965e+00
5.063299605857988217e-01
1.158974292894123792e+00
-2.041504462069363979e-01
7.503620197093190392e-01
5.002111152603507804e-01
5.682176297637447915e-01
2.770283179199399259e-01
1.145917875434029121e+00
1.763879028655949699e-01
7.199466935834006875e-01
4.705802072988873319e-01
1.144519518488525511e+00
8.267723307180067094e-01
9.343948215797264201e-01
-4.666756868819576382e-02
8.512698438270596135e-01
4.258904515293399640e-01
3.235825428207115828e-01
6.812880242590054758e-01
6.769706924527028047e-01
9.418923311883405092e-02
-3.749175335237617257e-02
-2.085463315517670224e-01
-4.590696491718212480e-01
-5.243222275428248702e-01
9.039339662609144344e-02
2.510073639852439809e-01
3.501859159459575488e-01
1.643919589747609433e-01
6.153411149888685788e-03
-3.575129850022208400e-01
-1.586219762508097597e-01
2.930579262857339051e-01
-3.545056420646863771e-01
5.620017395982875030e-02
-5.121724987788778272e-01
-5.160107920064445075e-01
-2.575775641630518864e-01
-5.526204159062690913e-01
4.170926138527848437e-01
-1.327985080737710544e-01
-8.494073828876491650e-02
-1.355941756586411806e-01
-2.764490861236859054e-01
1.969749729307457287e-02
-4.842486010192976198e-01
-4.251293700374510487e-01
-2.152580930984209495e-01
2.706013762339724016e-01
2.015219277609147167e-02
3.354078092341718498e-01
-4.446195857340312640e-01
1.094953557549365880e-01
-3.996524367154224988e-01
-4.979469389070487195e-01
1.233930436836869204e-01
2.451326692656361286e-02
2.768265580346597129e-02
1.168236213231005211e-01
-6.379109055885150148e-02
1.593265438550158231e-01
-2.450029594738127314e-01
4.071713134022169611e-01
7.157621919076237460e-02
-2.665042508684087874e-01
5.636455930788563107e-01
5.910166875221199989e-01
-1.863616316517281435e-01
2.760988521763451664e-01
-4.392872796494327187e-02
1.854647625569816605e-01
2.512119184999344612e-01
9.995172849954803151e-02
-3.150964084310856755e-02
-8.842020628282259986e-02
-1.309260845217888047e-01
5.219650113601865815e-01
3.835792193584356413e-01
5.668608884211483456e-01
5.001948279076261494e-01
2.995383695796502432e-01
2.239347994798805350e-02
2.358898405120771202e-01
1.033290300946498430e+00
5.757778631988094004e-02
4.601600060117826962e-01
5.383626521012259136e-01
6.337791117696749132e-02
5.873126241065711461e-01
4.686305701275735314e-01
7.112273909146263895e-01
6.598797791893145082e-01
4.400686173939280521e-01
7.897029820473816519e-01
5.909949837188007565e-03
9.049145174040801320e-01
4.477311811737511582e-01
3.551695345828851935e-01
1.031103879723200695e-01
6.101216153174831014e-01
2.096504004318393566e-01
1.440093766010425991e-01
3.112488366026722186e-02
7.894434095090563375e-01
4.508667458079185231e-01
-3.185355318210508213e-01
1.066022589604425086e-01
3.725872509459494109e-01
-2.645047283427051088e-01
3.366964311075891225e-01
-4.724732246480166098e-01
2.328381909160498198e-01
1.670406103936456499e-01
-5.217325462116400026e-01
-4.903861715672283017e-01
-2.554642316566359539e-01
-9.660231211592271508e-03
-4.066422339000637654e-01
1.938746668198898515e-02
2.423251805119535501e-02
-2.728800987431204694e-01
-1.614413947351407419e-01
-6.883666488199914613e-02
4.393290145946445180e-01
-3.580570936314761976e-01
-2.477205995766597613e-01
-3.521315059577990181e-01
1.688842135173223569e-01
-2.883313980870610416e-01
-4.719047083736524484e-01
2.527441629327396022e-01
-1.410727545689623164e-01
-2.699698475684732257e-02
-5.025485671134246463e-02
-6.609374697619282979e-02
4.136116236565755000e-01
2.926909063462683758e-01
-4.377222523124648657e-01
4.418961881904160949e-01
-4.946173205348285418e-01
9.655354784520914224e-02
1.211146054469797728e-01
-2.342652143159807965e-01
-2.625794857008046934e-01
-5.058896887696642253e-01
-1.281735262936889719e-01
4.968682950836438295e-01
8.394398591227596462e-01
9.568394921776993134e-02
5.746985840141146523e-02
5.948676680506164577e-02
9.309748175660491620e-01
1.621633360926147127e-01
8.029148483155439386e-01
5.050261828310073087e-01
7.215742532738338155e-02
2.829962001211746014e-01
1.691922382692138405e-01
9.479999302953149298e-01
9.179390416505399664e-01
7.846578549695061300e-01
8.296457866445931806e-02
8.418686633819355558e-01
7.100449196152729125e-02
8.423687466510705324e-01
5.419663386399354854e-01
6.833580063652505698e-01
8.170852223828760363e-02
-4.413780398069672706e-01
-3.867658234743558132e-02
-1.651014333510300580e-01
3.096411436210894097e-01
-2.527755291260278502e-03
2.935547831311903499e-02
-1.636717922327067254e-01
1.688554637662237068e-01
-1.654295595089838866e-01
-5.158967718371888500e-01
4.403403417883645643e-01
-7.607264463650433885e-03
-2.331211146985016566e-02
-4.305300146378278070e-01
1.060175974779392627e-01
-1.967269533404847337e-01
-1.326293581460280258e-01
-1.813866896066970158e-01
1.777678788262855580e-01
2.524845254228212377e-01
4.056578218927175405e-01
-5.059487046390428455e-01
-9.447317876390978753e-02
1.145620520665757841e-01
-1.888986034444762874e-01
-2.416990533027011390e-01
-2.425209419866066196e-01
-3.945783084422243570e-01
3.992864250614222565e-01
-4.083726025520233449e-01
1.632319024342532288e-01
2.411247764573518360e-01
5.593832370297587009e-02
-1.414160358174558207e-01
4.161298258127442140e-01
-5.657550212478775764e-01
3.971730208482506796e-01
-5.765147898737584820e-01
7.173450469908983218e-02
-3.499885492775076101e-01
-1.619646531544773893e-01
-3.952148372264526199e-01
-4.957419808774333747e-01
2.326232172609634941e-01
3.147407448145435604e-01
-4.999575077317682248e-01
4.133462362609620078e-01
3.358450950763879339e-01
-2.934914156576503008e-01
-2.151674894475205657e-01
-4.600861587195719249e-01
-1.383024162184117167e-01
3.729529698721000819e-01
-2.772935735953006575e-01
-3.543656660864413221e-01
6.581721609327891021e-02
-2.864949130037713898e-01
-4.129991158397295359e-01
6.817633041202757205e-02
3.383220495780210890e-01
-3.891417972989527629e-01
3.142706446529787701e-01
-2.495870306162759344e-01
2.287848749103775781e-01
-8.215210501049281799e-02
-1.136475952956101515e-01
-1.810168598514424465e-01
-3.636878911734725550e-02
2.543448831490405793e-01
-4.001749416812158122e-01
3.080340900382502745e-01
-2.262049808784695748e-01
-1.311588608548853729e-01
1.155012794606352228e-01
2.666759207381848573e-01
1.064935961462957908e-01
-4.630888792643101382e-01
9.960627097445694245e-02
4.952004722314646418e-02
-1.315816630268826504e-01
-3.683834539166360167e-01
-1.390103204167385254e-01
-3.387813490308075326e-01
3.054258457917871650e-02
4.137432891667087165e-01
3.952656580826134358e-01
4.740217533448453507e-02
3.344919869972258486e-02
-7.579822032476332683e-02
-1.985449448475902767e-01
3.016235132047303535e-01
-7.801650264610179852e-02
4.460821542161555464e-01
-1.778133672981712168e-02
-2.451607490084316554e-01
-8.818920392269280484e-02
4.198259559817676956e-01
-3.416202426209199450e-01
1.368807595790828002e-01
9.059668285084679362e-02
-1.059346329361122302e-01
6.621858345856293515e-02
-2.509063432103091906e-01
3.346240607746193141e-01
-4.518233271494677128e-01
-8.636095853828562596e-02
5.156562738521498074e-02
-4.628334111614162416e-01
-2.644382052984207698e-01
1.303674548555255330e-01
9.574864658782397328e-03
2.461454056873005891e-01
1.799816638851646500e-01
1.031020941646369621e-01
2.631893059962336356e-01
-1.176171562001151610e-01
1.809875525446749123e-01
1.815950895952716804e-01
1.431604876167210175e-02
-6.433593646318247483e-02
-5.635181160813341750e-01
-1.463900023578460496e-01
2.029563300581159122e-02
1.114640889641229371e-01
-6.100779065103167920e-01
3.949746717475012270e-01
4.346084442789668323e-01
5.390897228318682899e-01
7.015253028635948240e-01
6.749806264783904386e-02
6.034615409666368446e-01
7.209088103564320615e-01
7.217766999535278893e-01
3.311205488639582528e-01
9.461672153546974995e-01
2.085190505257319693e-01
1.083776679413438193e-01
2.563899575892923388e-01
9.962859119662553775e-02
5.246891505078292717e-01
2.910808083629027113e-02
3.023520843278583170e-01
1.543015691895882058e-01
8.399316508844859586e-01
5.563777946230089588e-01
4.220351184929459487e-01
-1.905947624212196156e-01
3.794915030545999990e-01
1.492325425707793640e-01
-4.467224476012126577e-01
-1.335994763492818205e-01
6.860800575366671206e-02
3.449642363956169078e-01
-3.712439301443741513e-02
-4.769181348208344495e-01
-4.443285800637474803e-01
-1.886643690915705551e-01
1.963260864805352682e-02
4.661499078002239171e-01
3.408905480162753854e-01
1.043433613987678060e-01
-2.198606093044423448e-01
2.253858485698527758e-01
1.072493855918375989e-03
-1.129395284807970662e-01
5.982908452629445706e-02
-3.173076562223290931e-01
-1.369154167298653781e-02
2.959212661177976211e-01
-4.734915639589416109e-02
2.090016593203808393e-01
-5.507606801957543041e-01
-2.716647910574119806e-01
3.568392898214271108e-02
-1.502669987481946579e-01
-2.805723703160797333e-01
-1.504275168171166077e-01
2.887230267745929946e-01
-3.495011611456824152e-01
-5.958362476021613618e-01
-4.138918366624321776e-01
2.359169401646675213e-01
5.402119445666844072e-02
-6.427103166811408419e-02
-3.131856218690488025e-01
2.547191762381164071e-01
1.400071310064153196e-01
1.575477612572772357e-01
2.109729587973914744e-01
-3.068098659043406173e-01
4.205353411631887472e-01
-3.934425002994503817e-01
-3.877670490955260063e-01
4.082937320422574401e-01
3.357327007735284030e-01
1.185356767614596102e-01
-3.421145412337154301e-01
-4.841066892159969770e-01
-1.198328822879401456e-01
1.683713500576791422e-01
4.057871356994479095e-01
-1.402786622088394441e-01
2.292751619330781754e-01
-2.769813290700635644e-01
1.409230361035850587e-01
1.269543749280120926e-01
3.769786186709679354e-01
-4.437267089021831312e-01
-3.026519488175684058e-01
-4.480270104889883531e-01
5.152709878285339773e-01
-1.952025868013821941e-01
-2.687671840940116241e-01
-5.133507237229506526e-01
4.713903899949010712e-01
5.093929484156540788e-01
-4.102654881943592069e-01
-1.574943186604834122e-01
2.175858442499166157e-01
2.282213136293953226e-01
-7.506986489824164777e-02
-6.751766019341806646e-02
-4.536644486920764496e-01
-5.783831355675201485e-02
-2.796854922370936233e-03
-1.791663458410773235e-01
-2.145715124844303490e-01
3.039322439836338319e-01
-3.377289426494900493e-01
-2.383887238832105016e-01
-8.349824448063106197e-02
2.384304523743535076e-01
-3.274129010127044270e-01
-3.916816049715333981e-02
-2.739250125030636140e-01
-4.323818112037539629e-01
-3.567739690507080175e-01
2.582773758337028047e-01
1.491228684503359270e-01
-3.223831340253610067e-01
-2.452011356486420712e-02
-5.830068406104647050e-01
2.945600923427049711e-01
3.795817730688198499e-01
3.638645065251098765e-01
-4.579705124173174546e-01
-3.761085603022913393e-01
3.248982554393615163e-01
-2.221673790585663166e-01
-1.647154728116287381e-01
-2.561087121096018993e-01
-1.119018781561548909e-01
6.595573871496844716e-03
-2.360994740624257071e-01
-2.834022289056247201e-01
3.452637687473652517e-01
-2.330784605801285714e-01
-8.884987063823128473e-02
2.107405797725901697e-02
-1.707107171918667288e-01
-2.849824649589983716e-01
-2.755544898760352301e-02
5.833152676241135648e-01
-2.556394801193676569e-01
-2.824797077430827863e-01
5.353816224674478041e-01
1.730926333129276240e-01
-1.820838628874404952e-01
-1.131580282385142161e-01
4.193287550640345529e-01
1.689707817016636304e-01
1.933346041108656987e-01
2.232457197274446692e-01
5.844088879195682429e-01
7.537769850320809040e-01
-1.777798065620641091e-02
-1.237958159380533329e-01
1.000385377862919173e-01
6.918268282031760918e-01
-1.062105777019405339e-01
1.336322785021362147e-01
1.826129612192149976e-01
5.544615271489478081e-01
4.352779722525181305e-01
1.080860357937847745e-02
6.676252612416835319e-01
-1.168231024928827050e-01
7.621913396247465000e-02
4.335351763672936620e-01
7.328831123387043178e-02
2.824648257335236612e-01
4.909411163399345357e-01
3.900331510059016488e-02
