9.533161224370692022e-01
7.359819556626658044e-02
2.347025581835741281e+00
3.571861154784819470e-02
-6.492971043389470509e-01
3.049210138758134958e-01
4.871236511470022346e-01
7.667590256825697059e-01
8.490307094928234433e-03
4.673425146674398678e-01
1.100974942406718754e-01
1.019377626220207833e-01
6.677451294048212249e-01
7.370618693305974745e-01
1.306017596401583214e+00
2.227862329014468901e-01
-6.328183474898502192e-01
4.369339030594154849e-01
5.998957856589767212e-01
-3.224561887477265382e-02
-5.695241606150530655e-01
1.879943592564646548e-01
1.081606728600846168e+00
-4.854847353984065306e-02
1.008166150612949341e+00
2.863950799960078286e-01
2.311695536085631164e-01
3.381261627554170701e-01
2.515492110643279489e+00
3.898987601391816771e-01
7.275545459386514313e-01
4.242832393946425196e-01
-9.353569420454387329e-01
5.324850274734886924e-01
2.543287170436948852e+00
1.190993516284483800e+00
8.630610318021676441e-01
3.873970583148576563e-01
1.215103404961456413e+00
3.015394849640274377e-01
2.184679027901650361e+00
4.263655203164374852e-01
-1.623321166543641170e-01
1.061198131358843888e+00
2.447194066836928972e+00
1.265242297029740115e+00
-5.211737005880612283e-02
7.106347991015729004e-01
1.115444471290231832e+00
9.491203138428140340e-01
5.231653759336515330e-01
1.021756429839399294e+00
2.305215367003146998e+00
3.122343517491422693e-01
5.618275558676716352e-01
3.489862359314470086e-01
-5.019449624762416517e-01
1.569305488170546770e-01
3.383113934644760512e+00
-3.818299873592307936e-01
9.352031109176482671e-02
1.699082945464467365e-01
1.626886117499030115e-01
1.103154618238187057e+00
7.314254058441466144e-02
1.885430300863464581e-01
2.542759412565592098e-02
3.312167416739663084e-01
8.865555719401321255e-01
9.108429612652594320e-01
1.796445440349825118e+00
-3.833680524415707946e-01
5.352689006154828233e-01
8.364377365627277960e-01
2.425056000832780112e-01
6.467739129199409076e-01
-1.113936377284884850e-02
4.584137084372626458e-01
4.762013510931857874e-01
7.195854911105926677e-01
1.500983107094375546e+00
6.639061298015216384e-01
1.095854583414240802e+00
9.300957336514150686e-01
7.663921254989794485e-02
3.517196283939856838e-01
4.726150260104294842e-01
9.102185907188493630e-01
1.666108876543253015e+00
4.067768986696945199e-01
1.016999444515723217e-01
6.938681114617216705e-01
7.571608276179987440e-01
-5.271956092755058360e-02
1.455993347937518667e+00
1.089538788412490744e-01
2.553076717893509318e-01
-1.023842433021418530e-01
2.090730906478204698e+00
9.421377734715344898e-01
-9.745949261938845476e-01
7.004414591949610358e-01
2.777393910585807535e-01
4.913941098450944067e-01
-1.340033365915922481e-01
2.929794014169073146e-01
-1.212584482285899989e-01
2.660354398975811607e-01
3.845526644269447458e-01
2.177317000811818670e-01
1.698810653336498389e+00
9.263889101154265671e-01
2.654966600456902803e+00
8.805443454719391605e-01
-1.714966652008923509e-01
7.515671939139823010e-01
3.939924288266938301e-01
-9.713118157248772089e-02
-3.088970973227554359e-02
8.755771207236174858e-01
-1.218106692141086335e-02
-1.810537629034838780e-01
-2.405606803818928219e-01
-5.421749830200938147e-01
-6.196483720162531128e-01
5.541131513553036042e-02
3.452729265991693053e-01
2.940897515152604558e-01
2.284684744451392358e-01
1.663223674782158060e-02
-3.472026354071116594e-01
-3.006891265160292481e-01
2.415389042194243385e-01
-4.231239215664964193e-01
4.480110605466402357e-02
-4.634854819363136147e-01
-4.815370041977856119e-01
-3.586059116123045398e-01
-5.271564631577457805e-01
3.167678726761145591e-01
-2.406065965786005068e-01
-1.610413494468298234e-01
-1.342281507655922190e-01
-2.631861649699122063e-01
6.394603826848650752e-02
-5.873234571977250518e-01
-3.879232206480655587e-01
-1.070259024306765006e-01
3.300944089911398982e-01
2.398615492052323939e-01
4.095685368322112829e-01
-3.669780951765302945e-01
3.254833264799868175e-02
-3.854719573224918427e-01
-5.338464379998053566e-01
2.081849313213944841e-01
1.407340757414460297e-01
1.411606158187540538e-01
2.144278990615002267e-01
5.931170720233865101e-02
1.450293338141267208e-01
-3.219708318360839372e-01
5.973054382098315074e-01
4.325465928907217261e-01
-2.133523895146986760e-01
7.900534019289222609e-01
7.034294803342021618e-01
-2.500085239788362168e-01
-2.236391665310299426e-01
-7.504286002886544071e-02
3.477381625086220507e-01
1.691270950689397479e-01
-2.762226591861304259e-01
2.114653500611700376e-01
1.372627622667890457e-01
-3.079398077956718716e-02
7.024696258264349069e-01
4.142871758591215037e-01
6.586862954654624236e-01
8.458137744679773418e-01
3.821377954459637682e-01
3.058298079841927364e-01
3.528288140665545303e-01
6.852113807065515205e-01
-6.432604703412168057e-01
8.273055213217862802e-02
-6.466297714293989252e-02
1.338350230012640141e-01
1.607929077589014488e+00
1.452754945405167364e+00
1.114630422574783175e+00
9.710167506161477835e-01
1.341732031018241678e+00
1.917875467814811330e+00
-3.109953120803895521e-01
1.174600810105604687e+00
1.956365972845108547e-01
4.325482874502447617e-01
4.453384568030158142e-01
7.183346689801461959e-01
-6.617428009709254155e-01
-2.351276896936340954e-01
4.795609517159718505e-01
6.304236292962140942e-01
3.800129602191398837e-01
-3.370719487622068633e-01
8.628737644632906989e-02
3.227959461880312575e-01
-2.863803335183932597e-01
2.531880067741025253e-01
-4.772357936015888535e-01
1.842462913881206255e-01
1.458732811512468142e-01
-6.127229262503506302e-01
-5.545265823411652528e-01
-2.647102720682986132e-01
-1.904934436782552976e-02
-4.409434274941804732e-01
-3.211288816625836734e-02
-3.086085186670993897e-03
-3.284910143548516737e-01
-1.949418188885382042e-01
-1.341482664322702356e-01
4.312542917478822679e-01
-3.345007125551170413e-01
-3.266570766569077411e-01
-4.810875525847449485e-01
1.852276472178552291e-01
-3.481407833754184278e-01
-5.305382006169039322e-01
2.485890696923204191e-01
-2.468865737943012895e-03
-6.691256518314472879e-02
-4.239849216929574699e-02
-2.187999429432834625e-02
4.809286283470580736e-01
1.740986662939311425e-01
-5.256054775321528094e-01
4.011567671654823752e-01
-5.278604247003286787e-01
1.160465100682961104e-01
1.257865537320389526e-01
-3.332288646423864353e-01
-1.350868887536122998e-01
-6.308154129816866407e-01
-2.145737934795504953e-01
5.819826900200619768e-01
6.675511712529006436e-01
1.547876806867290733e-01
-7.132479853789813751e-02
4.732547177517030246e-01
1.589261232403799795e+00
5.356501381026399500e-01
1.220392259990610295e+00
8.624618470127155545e-01
7.090071200369898463e-01
7.055829574888606848e-01
2.986445308838057699e-01
1.456645196775653517e+00
1.072944039249347226e+00
1.179894511261570189e+00
5.332138620638929849e-01
1.256530299311636956e+00
-2.418925129898515936e-01
8.810277758844617946e-01
1.017245259925845913e+00
9.020385493103554309e-01
2.075940662837011050e-02
-4.775566608470755425e-01
-1.004845734597905466e-02
-1.667283870538159296e-01
2.430732884990499942e-01
1.525783119418437118e-02
1.024794041729867600e-01
-1.554029528983369435e-01
2.677051473788883418e-01
-1.116358949693158631e-01
-4.727891193421277505e-01
3.691433050059180210e-01
-3.094025954341935933e-02
-4.776460757835804261e-02
-3.964404631107802390e-01
1.728105890293131774e-01
-1.340967322660747696e-01
-1.252765266109149012e-01
-1.345654502127341173e-03
1.447071313293399053e-01
1.853151952663790736e-01
3.783518066291287063e-01
-5.449334793597683246e-01
-5.753425868537451193e-02
1.214123084841983863e-01
-2.356327319933247677e-01
-1.934679415110651113e-01
-8.816891200909963977e-02
-3.625609674535445470e-01
5.615032344811734522e-01
-3.206202381059090611e-01
2.685733612962956651e-01
1.679003832583200739e-01
8.383971724531277814e-02
-1.535916822507891188e-01
4.997624371742290794e-01
-4.283198661263363793e-01
5.275831979062735044e-01
-5.495959805363552775e-01
2.384888092197449128e-01
-3.856060782000088061e-01
-2.459349128638172455e-01
-4.715941090165589045e-01
-5.206236788597651266e-01
2.727222883287365729e-01
3.443947409527340908e-01
-5.714142420584390480e-01
4.382726034836540996e-01
4.394819937197574911e-01
-2.746789435154157188e-01
-1.296085352957102865e-01
-3.924365978847053626e-01
-4.817097590916594174e-02
3.048325698185680999e-01
-3.397224142613162190e-01
-3.753748533319726244e-01
7.759645568145145944e-02
-2.539876322406148801e-01
-3.822786418884740467e-01
1.139217841169739148e-01
4.990635779939106564e-01
-4.712590692988166685e-01
2.656581416170059606e-01
-3.249612957923973533e-01
2.008502366794565897e-01
-4.710025471376072526e-02
-9.740984969516346126e-02
-2.545527038667059760e-01
2.848776684059068851e-03
3.480804703999289540e-01
-3.644714255683866866e-01
4.424168208681015790e-01
-1.466382258351747736e-01
-6.048985182683826178e-02
2.614795358050056931e-02
2.602517995227177638e-01
7.678237848109886743e-02
-3.951206019221289445e-01
1.984220680558289596e-01
1.458406725692461547e-01
-9.893596397190661251e-02
-1.636040773448322050e-01
-1.650157310426715873e-01
-4.215469720230903827e-01
5.145905164882618177e-01
4.930627707397965409e-01
3.269127526969209940e-01
-2.642914181094069628e-02
2.563805412887013024e-01
-6.933155178988756884e-01
-1.267638282449417897e+00
-5.296206487213361846e-01
-4.216156904271240458e-01
-1.604591505753540648e-01
-1.172646733514732587e+00
-7.986928385319806700e-02
-3.219359867810768772e-01
4.308670130719883251e-01
-6.497099254356306641e-01
-2.825512796421014161e-01
-2.814139222402904372e-01
-2.210429269040431188e-01
8.309677085285407938e-02
-7.654723221624670781e-01
2.640289682570796659e-01
-4.594119971220257392e-01
-2.716821235099228099e-02
2.001208594601294466e-01
-3.493859130800223145e-01
-2.337683358470462047e-01
3.305740329874909400e-01
2.764950999015713395e-01
4.473930705933427676e-01
3.651998742974351675e-01
3.385977824346999565e-01
5.471039210255339569e-01
-8.921155504175252993e-02
2.732345792352214864e-01
2.654361523344156426e-01
1.624850007186077749e-01
1.076073682801414327e-01
-3.895551773790172367e-01
-3.628451222895005823e-02
2.952009526903093262e-01
1.870884426275183088e-01
-5.632349829946700082e-01
6.811851918289886232e-01
4.604343679058181538e-01
7.878529366097060116e-01
7.575935662702942830e-01
6.120688110603619281e-01
1.242914224072227070e+00
1.105730738101271982e+00
1.164088441817877184e+00
6.767027462616278521e-01
1.577138632712965283e+00
6.260656013569443346e-01
4.065608690475405185e-01
8.184201577670572325e-01
4.120864840399039997e-01
9.691468676747598820e-01
5.342448127719975348e-01
7.937116269269963720e-01
2.682484193268570155e-02
1.069244550751529133e+00
1.057497890326284828e+00
7.547385992317446890e-01
-2.328677610295179223e-01
4.281347925189410430e-01
2.197800541178606404e-01
-3.859362387352357482e-01
-1.322199028989188285e-01
1.408273956264181337e-01
4.694013181829593817e-01
5.704680947573247812e-02
-3.632286516873213800e-01
-3.483407268098415166e-01
-7.906067969058926115e-02
3.675089909308758979e-02
4.928571756593534969e-01
3.777954115683998526e-01
1.520771776307431322e-01
-1.478682858479019591e-01
2.835318657997189518e-01
6.255876224369162630e-02
1.822660270532717791e-03
1.337202315926197538e-01
-2.597825582589717852e-01
-7.831550798727052176e-02
2.931450979418962488e-01
7.894669512824531096e-03
2.531603789175135844e-01
-6.100114294468280685e-01
-2.249101244568630087e-01
1.396897086332576920e-01
-1.082640340808982971e-01
-1.132814685571155167e-01
-6.193910389991939131e-02
3.685195093646720932e-01
-4.114740581360554761e-01
-5.904809677259053036e-01
-4.199487194794753742e-01
3.169828278481292005e-01
1.667251828393010171e-01
4.571596896848114516e-02
-2.467659906830645400e-01
4.558237949106588860e-01
1.225175109988047295e-01
1.113128261277416819e-01
1.601048245365571943e-01
-3.550338342453764340e-01
4.355240940255054038e-01
-3.991176535121684354e-01
-4.905522845656335451e-01
4.105086302899318418e-01
3.880748367969927837e-01
9.355092200506821831e-02
-1.939741447214353431e-01
-4.459720266260647770e-01
-1.002914878607314986e-01
6.530494067458188223e-02
3.888917815251320964e-01
-1.847068630125602018e-01
3.029411083328404364e-01
-1.754452946389545576e-01
2.486681801280459514e-01
1.519847778566467411e-01
6.061749191421003102e-01
-5.300977728068064776e-01
-4.333950692015933748e-01
-4.741646848636401068e-01
5.332138769164213032e-01
-8.835488391178812628e-02
-2.008749371081713364e-01
-5.223913419725073615e-01
5.985462490046017381e-01
6.817575159314558375e-01
-2.932930301428245956e-01
6.160407581961038727e-04
3.838663556183435910e-01
3.935827394015718461e-01
-9.849055928799074766e-02
-9.485912773966624287e-03
-4.143984622732503897e-01
6.929042459249928898e-02
1.496477814726835109e-01
-2.419029302895575606e-02
-1.481935953326673494e-01
5.811801632476749635e-01
-3.046947850398913915e-01
-2.585016900881933477e-01
-1.791838098740478891e-01
2.387014612611643438e-01
-3.371162235884105907e-01
2.965749864857435830e-03
-4.158791821959023083e-01
-4.179517923184024042e-01
-2.742551539673783734e-01
2.952033105132330637e-01
3.491147132565816658e-01
-2.745872638895951456e-01
3.903475857538079435e-02
-6.792502709536843986e-01
2.623381422557053422e-01
3.240689000675119336e-01
4.098703220898966548e-01
-4.003457241511683140e-01
-3.175953164750004443e-01
4.253611336636494711e-01
-1.118973538397464579e-01
-2.105173563377532586e-01
-3.482468659670387434e-01
-1.354286708500866132e-01
1.090474693117481630e-01
-1.823397237200427567e-01
-2.359025641695061681e-01
4.229106999183399607e-01
-2.026358509005028175e-01
2.954625764264758730e-02
1.287807242147601394e-01
-1.169787881218937176e-01
-2.679819233741924656e-01
6.025909760198815829e-02
7.008064928967490115e-01
-1.630798027252017834e-01
-2.198325878076457796e-01
5.448983800246404163e-01
2.101646626528433370e-01
-1.856587099756521753e-01
-4.489521354143066051e-02
3.155151799842149662e-01
3.332985123875702449e-01
3.784510031305076128e-01
1.551366063845398546e-01
4.631294994967502521e-01
6.819937725599269918e-01
-7.209725641975874011e-02
-1.927375512883741371e-01
-5.537518083631422922e-03
6.322153202586283660e-01
-1.713804905355805208e-01
2.125385608648340530e-02
1.008558406326376250e-01
4.827924665418746319e-01
3.362423177614077274e-01
-3.563133704869087537e-01
6.139482799302010685e-01
-1.792040807720428619e-01
-4.368561811738589512e-03
3.647126095070172824e-01
3.396129064688719473e-02
2.396857784296033966e-01
4.042829334127787111e-01
-4.372996544846291522e-02
