6.422771214183744526e-01
8.149784988571382449e-01
9.545746514228319324e-01
4.007191027662863059e-01
2.185717041453435691e-02
1.138514262818077105e+00
2.963373443492807180e-01
1.196127609048975415e+00
4.318500886514236026e-01
5.246166588293633692e-01
3.709388183824764429e-01
5.970686983779557311e-01
6.396434940699412541e-01
1.047274712689831411e+00
8.290990474873194405e-01
3.826837678623469241e-01
2.605442412837040700e-01
7.524809099890271691e-01
6.293989839590296009e-01
-1.872025525680183489e-01
2.525006167464365417e-02
3.638252818955995394e-01
2.653771502584033048e-01
4.650173271004351960e-01
6.793381730368248661e-01
3.876986192069075132e-01
1.287456392911479064e+00
4.716995314922527993e-01
9.043625171448419486e-01
5.955376489697276066e-01
2.817246069024945676e-01
6.297593066367291881e-01
1.867760165754898116e-01
8.572960940407833297e-01
1.264008084469578019e+00
1.491073037038324056e+00
4.721202274159181367e-01
6.068186295888654547e-01
1.680247612053582973e+00
5.502954693281943976e-01
1.283158954534645346e+00
8.185102821358638536e-01
-1.685060327763779620e-01
9.298467180022299550e-01
1.214802079627189890e+00
1.184593186726767389e+00
8.761780180757502423e-01
1.089960411150173947e+00
5.280087896940877101e-01
1.118358346091293143e+00
3.504903430232756967e-01
1.110635605525120306e+00
8.987490891821973138e-01
5.523311949411036093e-01
-2.964441169171175717e-03
9.108989397513532760e-01
3.083720644859812010e-01
5.555403791042669015e-01
1.489752673986421527e+00
3.072327741895712339e-01
2.053790788647534837e-01
2.652647712301731686e-01
5.343139792281864642e-01
1.150707809356189992e+00
1.565943605365773678e-02
2.867698687156365889e-01
-4.048872248427555498e-02
1.689103604739582987e-01
4.826884242672372372e-01
1.081766069839258826e+00
6.103924186358092863e-01
2.857412760817261699e-01
6.095136197892709884e-01
1.011069599691575727e+00
4.940009423210420803e-01
6.622225988812601161e-01
1.902809818267771902e-01
4.654638110528119821e-01
5.798387965995018822e-01
4.028978873010510831e-01
1.209714545667347707e+00
4.812292945007700107e-01
7.559060372143039386e-01
7.403562063495385814e-01
-4.649390169860796035e-02
7.010218604577983514e-01
4.791218888590182967e-01
1.049984045400384369e+00
6.452554755165976763e-01
6.091210020980315498e-01
1.170462127927143492e-01
9.678302126030499108e-01
8.391815269751081718e-01
3.884489304139052135e-01
4.826702601035099405e-01
2.668799002107741236e-01
1.345840006349325602e-01
2.595407040328003290e-01
1.162806302228975186e+00
1.129549621402265336e+00
1.341951564522209650e-01
1.011205723236940246e+00
-9.353340811195581805e-02
6.258931775712686107e-01
2.231856598570501615e-01
4.669245873578499739e-01
5.410916473661360471e-02
1.011060740408963321e+00
2.734391148496577162e-01
5.935942287489596181e-01
4.179915950477808839e-01
1.041971575533712224e+00
5.097953492448525914e-01
7.907101710048916043e-01
3.886318058226093108e-02
7.133283339672350509e-01
3.292391109033003804e-01
1.683477664752255909e-01
2.425798766049880872e-01
5.109332102192659653e-01
-1.038647473188750343e-02
-9.507735417647399101e-02
-2.466893360924073964e-01
-5.043205443742087013e-01
-6.021595140853066574e-01
5.304860958996682196e-02
3.023917039120889161e-01
3.488003752058667084e-01
2.041305763210704560e-01
-1.427149597362962520e-02
-3.499800411222404595e-01
-2.370051839724929832e-01
2.547377081965722101e-01
-4.184419427884764064e-01
2.548873394239728127e-02
-5.239382831488919035e-01
-5.476326050456097327e-01
-2.973721961814894121e-01
-5.931429239697760813e-01
3.846857173725735102e-01
-1.795056387204955750e-01
-1.841663040950494434e-01
-1.598032073343101100e-01
-2.795900741062334327e-01
9.184232475415285771e-03
-5.424696830858696250e-01
-4.271898510818353811e-01
-1.240393886935332174e-01
3.119410048715850481e-01
1.031581010333457726e-01
3.503313634302572810e-01
-3.949774624888939267e-01
5.583861855243753974e-02
-4.069544344497893484e-01
-5.350459111092423781e-01
1.305840323488579036e-01
5.491344587332513960e-02
3.742603060084254835e-02
1.210227680130873396e-01
-6.566209983378094861e-02
1.623755955453868305e-01
-2.569838119961934120e-01
6.147367674192382170e-01
2.754398003796879602e-01
-9.419086883420520195e-02
7.442656922055050916e-01
7.858531835745261596e-01
-2.893110654434504284e-02
3.452019733446015093e-01
6.741390580446637859e-02
2.723837995832343872e-01
3.862620690506768373e-01
2.048789704881812113e-01
1.829740895082333507e-01
6.862335493106000439e-02
6.291018136290801865e-02
6.772794593379145578e-01
5.265829876688746802e-01
7.324326189705823165e-01
6.944016804695769540e-01
4.953214648469463355e-01
1.842759147156418087e-01
4.204397770433856429e-01
1.240169009618420803e+00
2.770411506726009887e-01
6.473991372848821868e-01
7.350784000732336620e-01
2.635670071793396185e-01
7.613342498829100968e-01
5.826822888791957089e-01
8.452384608396349419e-01
7.811855403493631611e-01
5.922632390255504475e-01
9.214368988333216937e-01
2.307199667643717589e-01
1.074992542941230145e+00
6.528802606718850932e-01
5.281850925184039536e-01
2.651799596961753602e-01
7.925444080314568707e-01
4.225563994533253487e-01
3.538868352885184421e-01
2.087030159260410411e-01
9.864482201095824410e-01
4.015680167697349146e-01
-3.186595920109517310e-01
1.149318494425467796e-01
3.697126272045637152e-01
-2.938603849290933878e-01
3.229928422740193095e-01
-4.178459152969467016e-01
2.381213692312891261e-01
2.277618318052538615e-01
-5.221362522301182807e-01
-4.737590670389175140e-01
-2.710690748500391156e-01
-1.422741398642695006e-02
-4.186314578595359270e-01
1.314869659054787761e-02
4.513742462172953829e-02
-2.690192197851130063e-01
-1.483721121404683596e-01
-4.290108999402626050e-02
4.459633216286287838e-01
-3.504109866873298396e-01
-3.465991397862991930e-01
-3.784559111420989219e-01
1.661747934023496409e-01
-3.001438849735657555e-01
-5.288817206052053299e-01
2.493012332322924185e-01
-4.684470855792495503e-02
1.240913727554651333e-02
3.197437243861859374e-02
-4.988246071337085197e-02
4.666509534318665775e-01
2.377603625929584907e-01
-4.450394484525355132e-01
4.043911392907785785e-01
-4.889175823498456697e-01
1.280822271189351880e-01
1.298159509462719075e-01
-2.327323824853234913e-01
-2.633810442433042742e-01
-5.022471967029742412e-01
-1.392188957055334464e-01
6.956797833567720524e-01
1.051545450730953624e+00
2.773927396043889826e-01
2.484432457231816882e-01
2.531353777755230294e-01
1.100291110063408517e+00
2.740298461404743757e-01
9.342094155301152725e-01
6.242070714477006010e-01
2.205419678806838923e-01
4.114433612364728488e-01
3.864043607293264349e-01
1.113413584151899949e+00
1.116440116891142864e+00
9.533142378357766233e-01
2.408942038634170335e-01
1.019270029516812226e+00
2.772401551417658649e-01
1.045197676520609908e+00
7.145833587255677743e-01
8.743045519379206709e-01
2.998855860198868656e-02
-3.978032268183807618e-01
2.096545111604073905e-02
-1.179013056450009395e-01
3.065431619523648621e-01
4.031049184723976830e-02
1.506655780792968691e-01
-8.822121171284588725e-02
2.902426585318267360e-01
-1.065503673892053554e-01
-4.258275579360334961e-01
4.571840103987035997e-01
3.773536930534652362e-02
2.722665135567840355e-03
-3.773718890116955493e-01
1.893560248880593044e-01
-1.319188248751847203e-01
-6.313185974279394985e-02
-1.065198838630006528e-01
2.379160848209988244e-01
3.088257088600118161e-01
3.288781201905421891e-01
-5.239645687269712804e-01
-9.781388661470138968e-02
1.022318422956989825e-01
-2.362043114072029382e-01
-2.548362944540956132e-01
-1.743791108410091550e-01
-3.775696939318049505e-01
4.648614264493310944e-01
-4.060545233177854652e-01
1.914283904832300154e-01
2.016753755670959714e-01
4.514741220831137991e-02
-1.709265013215849616e-01
4.108566834704253656e-01
-5.460297607987949497e-01
3.980662890565135892e-01
-5.744902652277452670e-01
7.688440197498658257e-02
-3.508194119082736484e-01
-1.698468165998013868e-01
-4.805617821061431427e-01
-4.785239199523351195e-01
2.742803050821920885e-01
3.470934286185489714e-01
-5.227021637976568824e-01
4.540722025250250038e-01
4.627664630645948463e-01
-2.089528400211622394e-01
-9.878044782459893813e-02
-3.993602176029412143e-01
-4.023052277487859651e-02
3.539210059662300512e-01
-2.453035166191624428e-01
-3.534447047181629165e-01
1.175801059812139893e-01
-2.079097501269239756e-01
-3.561240546679783625e-01
1.202381976432611577e-01
3.853911067727739392e-01
-3.406608201851246132e-01
3.492777754482968566e-01
-3.221654846086997037e-01
2.725206748802798673e-01
-1.482376932775870265e-02
-5.657815789212806978e-02
-1.854950950679079558e-01
2.734971430152986077e-02
3.990791540763910517e-01
-2.941150337729726560e-01
4.451385634446791140e-01
-1.446483733969030072e-01
-1.172902635363840332e-02
1.228821797880954858e-01
3.221682971218787217e-01
1.319926409070769080e-01
-3.881613545666310894e-01
2.012778896930275951e-01
1.318529625804975014e-01
-5.246153111186305923e-02
-2.928094687014083375e-01
-6.666884866168508450e-02
-2.776958280820998048e-01
2.372727293186411290e-01
2.366492535858793211e-01
1.568343550267170816e-01
-1.923673795058961911e-01
-7.874131210133651290e-03
-4.193752718774268473e-01
-5.609923726558425638e-01
-1.156879234335303624e-01
-4.007975225676103093e-01
9.759775698544501110e-02
-4.300600498417969098e-01
-3.364350990631252425e-01
-3.718463272670632924e-01
2.673890281943965275e-01
-6.812562905826223814e-01
-1.707418864884276688e-01
-2.079345610576832926e-01
-3.459503499539491322e-01
-1.195767202775208232e-01
-5.169084626849399511e-01
1.342062219982596005e-01
-5.057676214717492513e-01
6.004211999597061124e-03
1.658320095959070484e-01
-3.577386214294406841e-01
-2.339158870675748514e-01
2.445482545200183544e-01
1.917912212792524662e-01
4.007707163646734294e-01
3.542921147439034302e-01
2.320328857058228389e-01
4.302770728073516127e-01
-6.258430914654537769e-02
2.859403579217218994e-01
2.528153716694990782e-01
1.391915120961434160e-01
8.246265093109407529e-02
-4.318597766948251704e-01
-1.883565465837138894e-02
1.399240729677808381e-01
2.305294186006707213e-01
-5.027953982525172894e-01
5.977766930343942908e-01
6.495437723372581296e-01
7.233035635646134498e-01
8.946161162921020260e-01
2.640095974706964110e-01
7.748114974661491905e-01
8.348018630402377349e-01
8.544842678703041816e-01
4.520875071370560327e-01
1.097047203798273696e+00
3.393324220775630895e-01
3.283621670301251072e-01
4.243332844434615780e-01
3.006776263964713869e-01
6.952996599351431994e-01
1.894802133928879806e-01
4.818077663470635708e-01
3.628466609447447144e-01
1.046056813014494047e+00
7.314492521732961494e-01
6.155711239516657995e-01
-2.332566300674308590e-01
4.300998189105329494e-01
2.152837725766642007e-01
-3.934934991860450371e-01
-1.292289204530331914e-01
1.170821146851070832e-01
4.659688073942569453e-01
4.134071552641151170e-02
-3.552789912976144215e-01
-3.803174488723428670e-01
-9.506588275545628519e-02
4.653729419682956642e-02
5.193950128425748325e-01
3.751686618550719721e-01
1.625597874674369059e-01
-1.323060898581636946e-01
2.951054128781794295e-01
7.513621818669456720e-02
-3.252690595781022181e-02
1.260030067001529919e-01
-2.539977833239123184e-01
-8.399541399690745036e-02
3.440371987069947846e-01
2.367948672219106002e-02
2.696359368333200446e-01
-5.523615756623084794e-01
-2.052618500332653861e-01
1.829664871212887955e-01
-4.188120685763238593e-02
-1.410750557985828713e-01
-6.602606318388852535e-02
4.101742012047412955e-01
-3.389554124390211642e-01
-5.381910083780644394e-01
-3.846839864927312780e-01
3.136457839115052715e-01
1.583000004281327477e-01
2.052031312836789800e-02
-2.306207619951791410e-01
3.351499122642377926e-01
2.157088381328876592e-01
2.222140802297513096e-01
1.708546458586525651e-01
-2.586093325723657910e-01
4.825081611786165570e-01
-3.441427775853506676e-01
-3.856425744654382592e-01
4.512281978299494400e-01
4.499310232904054074e-01
1.897566647320306776e-01
-2.256119494566516948e-01
-4.270819767120409560e-01
-3.442631905436478040e-02
1.945523292826329131e-01
4.542456559375188108e-01
-1.082468918575072159e-01
2.816525436940188754e-01
-1.956945210455717787e-01
2.054482342437662368e-01
1.971377225035801928e-01
4.547284124956545992e-01
-3.826189668133475608e-01
-2.431351193739490490e-01
-4.995702819817209872e-01
6.027097297533100528e-01
-8.551991099819365727e-02
-1.688023593161252500e-01
-4.833033279667434123e-01
5.787934448112054264e-01
6.846620666107330333e-01
-2.641494369422556776e-01
1.027532241942518375e-02
3.409102785944496672e-01
3.874896028532904824e-01
-2.344381368694768708e-02
3.222167909650042184e-02
-3.858505344515120172e-01
6.043221916707375990e-02
1.385142142024427536e-01
-5.396978289708447007e-02
-9.312888109724529184e-02
4.195263483614377620e-01
-2.233457382403012392e-01
-1.347903403714285075e-01
-1.763295714015649662e-01
2.236061895567442726e-01
-3.231143712215033270e-01
-4.169194582073943584e-02
-3.248007137545182443e-01
-4.281188972227994993e-01
-2.645507540225036092e-01
3.038108450296402863e-01
2.346180772203451392e-01
-3.022076091603564385e-01
2.815349366786286389e-02
-6.274534789437903326e-01
2.935040918574551849e-01
3.506136989075132604e-01
3.774809200476483273e-01
-4.214315271627092074e-01
-3.589140889729248163e-01
3.387147277068827678e-01
-2.150507792602405488e-01
-1.547597593748034628e-01
-2.596724638547850406e-01
-1.356036049420999701e-01
2.478469709121586956e-02
-2.113888655351911228e-01
-2.735809108384777422e-01
3.339104434800337362e-01
-2.412992187500544727e-01
-3.057649484708269833e-02
2.553664978495753801e-02
-9.967412223678820404e-02
-2.785854214668697093e-01
-5.782443502856865480e-03
5.928976549848090638e-01
-2.445505347176391564e-01
-2.756244505353019902e-01
5.346426696688482139e-01
2.054973146598594036e-01
-1.679887265295682830e-01
-8.605721240572608566e-02
4.663184671688856420e-01
1.891905576091742758e-01
2.200786642024138151e-01
1.642090773608195220e-01
4.690519967053956574e-01
6.397455724265629362e-01
-6.268386695105966633e-02
-1.796060991586454769e-01
-8.697790218941481646e-03
5.780515901331566564e-01
-1.623525983528317229e-01
4.068126931967046972e-02
5.986079571780258263e-02
4.476369159193278602e-01
3.388993670528413493e-01
-6.311460068784874311e-02
6.151043367958926034e-01
-1.707373264803094814e-01
1.954963946090987684e-02
3.441342434334094813e-01
1.427617382398768849e-02
2.246776732414387800e-01
3.783781192803387650e-01
-1.826107427316917345e-02
