1.058334254565987953e+00
-7.731851627321131848e-02
3.229003679988352804e+00
5.272295313885110024e-02
-7.124110330428429227e-01
5.882047665718526108e-02
5.120298401258461807e-01
5.358882540950739015e-01
-1.280857978471720005e-01
4.893847474842435985e-01
2.353774138604473876e-01
-2.707007073333920766e-01
6.507398161041394458e-01
7.768739169585053839e-01
1.489026008868901352e+00
2.010469037911765677e-01
-8.251850772806921253e-01
5.100465902691135867e-01
5.578232787790939895e-01
-1.933256630314121247e-02
-7.167956802981099163e-01
2.243297821301762363e-01
1.190773291584880544e+00
1.359652609033671147e-02
9.563218669334118127e-01
3.378251082506711356e-01
1.975047612511376949e-02
4.970188775417809235e-01
4.471029101868283284e+00
4.216943130993950350e-01
6.823893459756202873e-01
4.312662635991646454e-01
-1.251557446484304004e+00
6.411947056261073641e-01
2.911029027707410233e+00
1.125866439843804967e+00
8.103132451707332207e-01
4.885415497611760860e-01
1.417366985574596061e+00
3.880268279486775995e-01
2.582655912440992019e+00
5.469751816158819890e-01
-8.743305677647443541e-02
9.831228306084940360e-01
3.982961876120609812e+00
1.192176362620625651e+00
-5.959475709483729178e-01
8.813088147405836459e-01
9.126432092600879065e-01
1.228387437374633295e+00
5.023577633298258460e-01
1.270924497442348589e+00
1.891820616610170980e+00
6.472097637375618939e-01
5.572391549804363020e-01
2.803677492301466789e-01
-7.814298548978361181e-01
2.357504493865411610e-01
5.293723635247966186e+00
-3.793638278649713036e-01
-3.725584464026414355e-02
3.630650967294414833e-01
1.324525475615636987e-02
1.139122972268000744e+00
2.134722879377837779e-01
2.524424443442694344e-01
4.333620435227043127e-02
2.855548078022152603e-01
1.368512461584182827e+00
8.571531608898935728e-01
3.145308111515926264e+00
-3.999061426713158007e-01
5.158996435472402720e-01
8.323813863806247548e-01
2.180727070786764865e-01
6.566928638199039936e-01
5.866066703890917416e-03
4.372759861822422822e-01
4.893508538742722958e-01
6.650087158292521394e-01
2.283768497034606160e+00
6.143865171875224629e-01
1.635533918949225507e+00
8.752343975461861492e-01
-1.899146506160638015e-01
6.745189681289439632e-01
8.050784435840339093e-01
1.034270173128415404e+00
2.580808385766408808e+00
1.131238803251880087e+00
8.264062328111132505e-02
6.610335468780995649e-01
1.538793386910402239e+00
2.965279988473334960e-02
2.024453299812946305e+00
1.090033743727919086e-01
3.635081244691532598e-01
-6.900114103832073742e-02
2.782122115273550023e+00
7.868774655755239600e-01
-1.455112548289472230e+00
6.421059591257120003e-01
4.324302797764313366e-01
3.171667720989228556e-01
-1.059603142275709897e-01
1.607458889400771307e-01
-1.522781396579382385e-01
1.099062568990938488e-01
3.847905182340562447e-01
3.699915244796005975e-01
1.396308993142798771e+00
9.238055273313978688e-01
4.999990748438019494e+00
1.022366945294689078e+00
-1.732028158035899823e-01
8.097664954549671501e-01
4.737000655694787454e-01
-8.707591326653708885e-02
-1.163643354797077173e-01
9.478280540204864213e-01
8.429108101296281953e-04
-2.677251003071873803e-01
-2.423489269756215203e-01
-6.008584032551992360e-01
-5.603908681913051248e-01
2.927570855992552706e-02
3.605621443810931859e-01
2.826662905721228913e-01
1.973233484441637708e-01
4.227013031698375473e-02
-3.970496260630340668e-01
-3.231884684429540133e-01
2.255919058212702555e-01
-4.328552683231913778e-01
1.140990558033018881e-01
-3.802752159561084699e-01
-4.353604690628170015e-01
-4.067143018107118868e-01
-4.785460159128905322e-01
1.598740162958390554e-01
-2.629000768797193910e-01
-1.318924222953620773e-01
-1.664316782833450692e-01
-2.651431452652107112e-01
4.078623374485933900e-02
-5.310817321745381347e-01
-3.810020802725909150e-01
-6.202582400896478054e-02
3.651605112937330033e-01
3.052039634686531944e-01
4.742088713633924035e-01
-4.053175656272716143e-01
1.156615884427854464e-03
-3.577799000751724634e-01
-5.350496584516423182e-01
3.059129801388233982e-01
2.606346341476907247e-01
2.087064187451834751e-01
2.299708134085448052e-01
1.492380189331133367e-01
6.617692310538209055e-02
-3.365065921815761918e-01
4.195935142764745662e-01
5.181714994364848836e-01
-3.953256235455792633e-01
7.717171185672087041e-01
4.807570898081897082e-01
-3.033281873846132015e-01
-3.571947865411233547e-01
-4.145105380234201387e-02
5.502873232756679833e-01
1.136520628779036229e-01
-4.099161198940144968e-01
6.849535405873266591e-02
2.010251784580962542e-01
-1.547364451521732465e-01
7.021002429366720587e-01
4.441742423159658615e-01
6.408896345639845116e-01
9.397148650587109353e-01
1.838181664790300984e-01
6.953204779535560043e-01
3.097501714917518800e-01
4.183945699571432475e-01
-9.068735239586811492e-01
-2.398701653913862253e-01
-2.436547122223048922e-01
-4.072656881787380945e-01
1.800520085195371545e+00
1.627091700753495074e+00
6.978748418210602988e-01
9.992093341841810084e-01
8.695825950159845608e-01
2.924982301714718069e+00
-5.974353173465352107e-01
9.998927382556151988e-01
-4.134754009883025855e-02
1.634902399955753260e-01
1.826994535629073990e-01
6.343078647980240348e-01
-1.007676068720635199e+00
-4.985147590897116565e-01
6.855778729397744575e-01
4.414425280119073092e-01
3.746018868110492228e-01
-2.442527255228977567e-01
1.062649345457178790e-01
3.920598587365914378e-01
-3.291452833446374404e-01
3.032312162964692082e-01
-4.735589384322260176e-01
2.185966171702194705e-01
1.308913262419789947e-01
-6.411616369450426900e-01
-4.451868072082276750e-01
-2.248444808052138810e-01
5.506382842615386436e-02
-4.307609490057003332e-01
-5.285278051875550581e-02
-6.981129212633571668e-02
-3.104268283871848833e-01
-1.675889788843015760e-01
-1.874262590267861961e-01
6.807078713061888164e-01
-3.367789421187610266e-01
-2.973945215043468093e-01
-5.837126738627086420e-01
2.038179227986071373e-01
-4.047977907031058420e-01
-4.653438156645612889e-01
2.354021114315148211e-01
1.495666438649359727e-02
-9.334162714533282557e-02
-1.078413772320260255e-01
-1.646102240239981016e-02
4.875613744109924541e-01
1.634841178019473262e-01
-5.696858591644063941e-01
3.899630767434009160e-01
-5.050109497161935357e-01
1.215257199111032388e-01
1.307828343213265909e-01
-4.102975123967766424e-01
-6.943997855895803206e-02
-8.153561893143376205e-01
-2.701799078618225547e-01
3.160903265029277875e-01
4.720641280112131688e-01
-1.517534768862755790e-01
-2.505296464913304710e-01
1.399801114856359385e-01
1.410865522487878554e+00
2.218230297213167335e-01
1.116824644288879620e+00
1.319445434465575939e+00
5.916479545260379114e-01
4.050374071316353852e-01
3.548860946681119122e-02
1.347535975400840025e+00
8.718538901946166764e-01
1.113026061674385447e+00
4.201433094197762341e-01
1.186252159055825484e+00
-5.068810924187648892e-01
6.241130479305975198e-01
1.084141364992273981e+00
8.108795168306492940e-01
3.320745875144757997e-02
-5.690160216156178175e-01
-3.493284599313329492e-02
-2.325496139026289322e-01
2.701313386857472909e-01
-1.690658389218515842e-02
9.891612792985636504e-02
-1.651390962915796901e-01
2.632740045662048667e-01
-8.610210109827481917e-02
-5.415311488607668089e-01
3.048912828027379174e-01
-6.124352937162094723e-02
-8.089250855229848658e-02
-3.419710396424980314e-01
2.445081729341498367e-01
-1.122687472449210716e-01
-1.754655982068095421e-01
8.755588819672627254e-02
-7.068207839643862213e-03
1.184026067362298762e-01
4.079565520313138127e-01
-6.138775171746145842e-01
-6.231534736538500707e-02
7.021662189869976034e-02
-1.714104154339743113e-01
-2.069053932639380033e-01
-5.217749605798121387e-02
-3.603608008126282236e-01
5.686755063046802228e-01
-2.776971248055385977e-01
2.243740671335355541e-01
1.263516318333303690e-01
6.829323844963061663e-02
-1.682256136232851140e-01
5.707205677730975424e-01
-3.409898844901054771e-01
5.672563139757196282e-01
-5.773716803635915440e-01
3.373312762389688579e-01
-5.447793778044276447e-01
-2.925833974669193593e-01
-4.503091083149853846e-01
-5.760278052634745238e-01
2.804665478266415435e-01
3.123046109774936241e-01
-5.228729971520837960e-01
4.304408371937244460e-01
4.376169590899727235e-01
-2.908497260970853149e-01
-8.708550708816256702e-02
-3.796674083544139822e-01
-5.419585426247094939e-02
2.907338534584443246e-01
-3.863727463842002718e-01
-3.802580005888996917e-01
1.008522864072646519e-01
-2.513932180025251206e-01
-3.988623253533588042e-01
1.074750573541234377e-01
5.562918357645950662e-01
-6.176940821086490674e-01
2.419337834919350338e-01
-3.175109459082806063e-01
1.318733269615144366e-01
-7.200946378391782920e-02
-1.513518072505757039e-01
-2.246850276824619297e-01
-2.646536441304413872e-02
3.522527533243490216e-01
-3.786674571033662451e-01
4.366009180488751307e-01
-1.276429453410460602e-01
-1.205842596580464082e-01
-3.375465302563981917e-02
2.304547860497727918e-01
4.162899398914812060e-02
-3.532683093260748364e-01
2.494636589777952107e-01
1.615249158100498239e-01
-1.283844128208073143e-01
-8.810064009743412416e-02
-3.130584253308426601e-01
-4.919701891513030279e-01
6.687982429143478624e-01
7.697214536832222009e-01
4.636527787704231574e-01
2.040116266995602445e-01
3.058967847873088064e-01
-8.500425820583255021e-01
-1.377102782567111605e+00
-6.044051974187656384e-01
-6.064883945565028300e-01
-2.210403298463996802e-01
-1.432990745697813040e+00
4.590806548657001829e-02
-4.797109944737386056e-01
5.695655845531311101e-01
-6.696136394206022580e-01
-4.653345369452163705e-01
-3.107578734241038254e-01
-8.441553109695541790e-03
2.437252033402911577e-01
-1.127689697258595691e+00
3.685089808643871589e-01
-4.410127905846737417e-01
-8.804767826632621530e-02
1.860385666743334943e-01
-3.977829853478324629e-01
-2.174847840157652090e-01
3.256385705523189844e-01
2.633578683627512129e-01
4.363472263871093215e-01
3.930876333040617121e-01
3.607708243704302875e-01
5.201562052298221994e-01
-1.346568750029213113e-01
2.372867167672967348e-01
2.463909351176550300e-01
1.759142478875940774e-01
1.214233731628408947e-01
-4.035505668185293549e-01
-6.240136131216913323e-02
3.769929894116461067e-01
4.923270485258095935e-02
-6.132539735330799768e-01
4.902748673462961615e-01
3.295937185986205220e-01
5.737103075378134909e-01
6.445835096775763828e-01
3.750287735852484428e-01
1.142327406210978058e+00
9.126096823762102073e-01
1.144547858712165578e+00
1.110418817125947699e+00
1.534689120244344451e+00
4.456639127905530073e-01
2.286568719350121626e-01
7.804707827563248657e-01
2.754650110565544097e-01
9.354773930885834643e-01
4.840342204046994556e-01
8.343347992747419672e-01
-1.708833274173885419e-01
8.889627041133774110e-01
1.094170235606664265e+00
6.930879761673759409e-01
-2.708381801425048807e-01
5.053610340161649450e-01
2.295915507075927398e-01
-3.352201696322854030e-01
-1.877019378929459803e-01
1.667733824496349937e-01
4.610197196402928688e-01
7.522028154063815919e-02
-4.287646107290843944e-01
-3.908552472755476015e-01
-4.791195370201378496e-04
9.271137353768628409e-02
5.618849490114288248e-01
3.902571291642423779e-01
1.062410239931693839e-01
-2.098041056852585629e-01
2.925929080409021554e-01
7.004649132278481516e-02
-1.275786767441322578e-01
3.883646243375941665e-01
-2.192703430212151750e-01
-6.246593969543806635e-02
2.359939844309220935e-01
-1.636209875557687564e-03
2.112798646928247259e-01
-5.671097261482211938e-01
-2.407430080094260794e-01
1.621311130809407475e-01
-1.068179665311031479e-01
-7.769119409208555260e-02
-2.771832096701351209e-02
3.198707097139101285e-01
-4.474773701575419094e-01
-6.021526517735042994e-01
-4.338060289788553403e-01
3.849432329819624243e-01
2.491701646937777292e-01
8.406542653229852335e-02
-2.615166684823783116e-01
5.249675808836083979e-01
-2.495501686329417573e-03
8.123094058606958323e-02
1.631116865307365160e-01
-4.523400387134819955e-01
4.026653787172588816e-01
-4.714416793226338109e-01
-4.495091126753198996e-01
3.690648002249303783e-01
4.023630080032005729e-01
7.484995699582232265e-02
-1.723437207251317382e-01
-4.187836466784647937e-01
-1.817241496420900770e-01
-3.889468824613901993e-03
3.464243730575936042e-01
-2.240369682714714872e-01
3.703897166572588939e-01
-8.202784464522430707e-02
2.767572389991077575e-01
1.132007944381340087e-01
6.833255631199036673e-01
-7.278597614407946725e-01
-4.993693559564248985e-01
-4.740206105632871481e-01
4.442739026681118975e-01
-1.253471360447864225e-01
-2.703478806832375070e-01
-5.064056610141659531e-01
5.614319350149609145e-01
6.812082881246508403e-01
-3.189463066318115048e-01
-2.280947256580200325e-02
3.915865604866892169e-01
3.279358254412003681e-01
-1.742254539188515250e-01
-5.967423812103970354e-02
-4.616839931503078920e-01
1.029704044561734755e-01
1.868438356699901604e-01
-2.297624872973368787e-02
-2.027782089587929493e-01
6.597507197079006680e-01
-4.687250838826146904e-01
-3.464011467265959432e-01
-1.545830859892050324e-01
2.327351354142480067e-01
-3.460578195623896791e-01
9.866780428883122067e-03
-3.990252329593827474e-01
-4.332754733874773501e-01
-2.704202799980054417e-01
2.966589280448659882e-01
4.937884179424246178e-01
-2.439063701618913449e-01
-1.485405767199231460e-02
-7.113848026430245053e-01
2.376934802181679407e-01
3.276649754258483260e-01
4.615707784721985174e-01
-3.675813078847289250e-01
-3.065608437339786274e-01
4.867517304484555996e-01
-3.289933362385772525e-02
-3.538431269787903899e-01
-3.496553555394327217e-01
-1.458028056364831793e-01
1.682861865461759143e-01
-1.680089693167790554e-01
-1.922813167808017365e-01
3.926148877763228073e-01
-1.722886523715292939e-01
3.608770980018908420e-02
1.494355402145552958e-01
-1.572707578341606960e-01
-2.836009084833999161e-01
1.211803037244007786e-01
7.400824087494642933e-01
-1.223003064194054385e-01
-2.004061373107446364e-01
5.114771733193173020e-01
1.736679249794627622e-01
-1.891085712935749452e-01
-3.472470919640519016e-02
2.560000403880061115e-01
5.069213644819298148e-01
4.173641246930562820e-01
1.538563895415235860e-01
4.762838057052623530e-01
7.237638532007832914e-01
-8.576245067551989398e-02
-2.037883069802602365e-01
-1.966188847537360743e-02
7.040523766773636449e-01
-1.742686718351738606e-01
4.628529674738960514e-02
1.518115309576753003e-01
5.215415014575718322e-01
3.484016412157979192e-01
-5.038844499665813270e-01
6.110080209789533479e-01
-1.808886457448193041e-01
-2.923147457178969927e-02
3.772203167173830418e-01
8.027925465095304969e-02
2.582495172784116111e-01
4.329820668906201875e-01
-5.454947549357006681e-02
