1.788600939003271328e+00
-2.095212970507486006e+00
2.450220440837415303e+00
1.099040350288820855e+00
-6.700250846156714513e-01
-1.978490368846150260e-01
5.407134344957593708e-01
-1.362564629308939290e+00
5.979562042206342243e-01
5.336444187936013606e-01
-3.767741480678187260e-01
-5.420275273634150182e+00
1.432354850941782720e+00
6.049003612010993791e+00
6.951837739159647533e-01
1.237111819939906709e+00
-5.029130648407333926e-01
2.665965604180688953e+00
1.020150098787968806e+00
2.660811412171062429e-01
-6.218042768779554752e-01
2.422296767814915985e-01
7.903372476359113996e-01
3.586707063479121493e-01
1.475387310497178417e+00
3.230714780283200915e-01
4.766919060570662947e-01
1.615619417441220007e-01
2.238891946502018016e+01
6.245196475881293896e-01
7.570926931253948444e-01
2.693220593359265891e+00
-3.476604545507816280e+00
1.690563656662025682e+00
4.768450741780751123e+00
6.264843770389779687e-01
3.221158965907150673e+00
5.686142063419422632e-01
4.019825108312328865e+00
-1.360064993006292022e+00
3.496391356783733695e+00
1.840266118052740874e+00
4.181836324514050851e+00
5.851660690426133904e+00
1.430865311374272508e+01
2.699687609318526249e+00
-2.896885998645561955e+00
1.502500245425341996e+00
5.038773754264521898e+00
7.040592253260828493e+00
5.863126749673592819e+00
-9.417276252011825832e-01
2.633995036805722556e+00
1.081314153397268107e+00
5.875419413120717138e-01
4.632125556208163353e+00
-4.602478319945409346e+00
-2.384557280752717112e+00
6.552491307984597668e+00
-5.878460083613838982e-01
-1.027485061651080694e-01
1.159989321846237154e+00
-1.563754834000225635e+00
1.245154301903420579e+00
7.894325451302338648e-01
1.495039982292956315e+00
1.583713645213083554e+00
-2.663821335577346350e+00
4.774864432317984964e+00
3.521513841568035125e-02
7.431250618740799396e+00
-2.906106793281066358e-01
9.172446790909561942e-01
-1.155128285142111633e+00
1.135837293192187847e+00
1.086307910730979653e+00
-1.467320751760526010e+00
-2.754962798502366139e-01
2.631522070640557764e+00
4.667219110532642823e+00
6.151546329756724774e+00
3.218317379603476969e-01
3.156726019376686065e-01
8.892698196008711475e-01
-2.208552393111481160e-01
1.573378110522551054e+00
-1.063634479199513816e+00
1.164206745462174286e+00
1.472394534757820006e+00
6.945572778503156242e-01
1.564032272266094648e+00
1.817645674565021352e+00
3.947306361581512490e+00
-3.510582433409858538e+00
2.321889356083791434e+00
2.930480313614049481e-01
1.047763829188156137e+00
4.884844479435988873e+00
7.646206366740664784e+00
2.915623870840813758e+00
-3.237319803501959026e+00
2.145615547198581385e+00
8.973479298838958895e-01
5.863477534670462621e-01
-1.187707496215449243e+00
3.778623911779984135e-01
3.851770148483815714e-01
1.655368326682954860e+00
1.054281192784386478e+00
8.187791695821389215e-01
9.463312588035431849e-01
2.366065636382957971e-01
2.105568141721667530e+01
6.385202231621650570e-01
-1.775667357760657705e-01
1.144759006799267675e+00
4.439810435150357004e-01
-7.528792112789683966e-01
1.988593020356623775e-01
4.592001505224140523e+00
1.703266622259915208e-01
3.971854443553685110e-02
-2.308811741092508529e-01
-5.904518562157934358e-01
-4.726465356623491543e-01
6.616700865701442835e-02
3.010043495263888258e-01
6.476299691731289832e-01
-3.355044463922746134e-01
9.148089788373571507e-02
-4.178013027252024947e-01
-2.946349714904991646e-01
5.148719734590918584e-01
-3.342675660083216926e-01
-1.702923063815187654e-01
-2.561709840335177901e-01
-4.436913410063631491e-01
-3.796934441487146428e-01
-3.783698692847911604e-01
5.224349751313218243e-02
-1.803344616683046631e-01
2.149092904140536761e-02
4.739849257936010890e-02
-6.764619231416949541e-01
2.229283128271331293e-01
-4.551764041148282924e-01
-2.317323825165818474e-01
-1.855253990654531504e-01
5.354292225941282846e-01
3.855395563397275016e-02
5.669421726770306202e-01
-2.798902146297726490e-01
-8.885093796301650471e-02
-1.655557119955348433e-01
-5.051860284219409358e-01
1.556832457068579000e-02
4.465848999059952584e-01
2.200625932066734847e-01
3.155361157616522472e-01
4.790595768450925385e-01
1.072483016456512867e-01
-5.376167741137783951e-01
-2.842806120384720400e-02
5.549368069377078744e-02
-9.193698918590098579e-01
1.565689577378598818e+00
3.852822184396508254e-01
1.766127475340906472e-01
5.068264030125074759e-01
8.542075634740249335e-01
2.202007505758964978e-01
1.117156301397417950e+00
5.914345922775805509e-01
5.617496495419944669e-01
1.650188957976739035e+00
-8.419132423710287139e-01
1.314377670812309384e+00
1.291542840834278616e+00
9.477822032388891760e-01
1.720649607832751782e+00
7.986563380596529982e-02
1.698352174951266891e+00
-1.721730990815805440e-01
-4.763129437743189587e-02
2.949079973616892114e-01
-2.681159266411541342e+00
3.442318333602378821e-02
-7.042879701242806822e-01
1.149325726378111767e+01
-3.682450380209162377e-01
2.449070352293224673e+00
-5.770250502398329706e-01
7.606801546075584453e-01
7.740641794648083218e-01
9.116153702637380674e-01
7.955958784078888790e+00
-4.652100809513642354e-01
1.283410491949040999e+00
-4.138165819871635343e-01
-3.878107161211597487e-01
2.373519940397016192e+00
1.031851235663349797e+00
1.030490585850787966e+01
-4.419726722598234403e+00
5.030473749785907556e-01
2.001799352396937404e-01
1.075021400878723721e-01
5.602311550414524888e-01
-2.548745981541470362e-01
4.285291624829575818e-01
-7.962832250066348427e-01
4.811693542035479498e-01
1.060609822413022679e-01
-6.313168374721571663e-01
-5.505304044201863034e-01
-6.440430447239056111e-01
2.121237207138928493e-01
-2.647272095491106647e-01
-2.177961862276902305e-01
-1.318966163796242430e-01
-2.534736051792880196e-01
2.402155364794152925e-01
-2.253129207947994483e-01
6.704511855134205334e-01
-1.149933651911155819e+00
-2.364793149344421863e-01
-5.065343855830816144e-01
2.647087817256950082e-01
-7.532533812291231090e-01
-5.325017517359511565e-01
1.598354846622748737e-01
-4.569188152289340166e-01
-4.758688447663749210e-01
-4.305311170176778779e-01
-4.676934977993333353e-01
1.951093212506149199e-01
-1.866143691023131879e-01
-1.245866599519582563e+00
4.710466114991838649e-01
-9.800906364763506406e-01
-1.247860824577152611e-01
1.194201841129095554e-01
-1.056189652890028530e+00
-9.767370662237952195e-02
-1.206744470541994518e+00
1.291101660005065654e-01
-2.486139500219402887e+00
4.708808027748640629e-02
-3.056843553837727434e+00
2.533067450847684920e+00
-2.475528680936783132e+00
4.290797610872983725e+00
-2.684024623729661219e+00
3.255567746292768128e+00
8.686997061210725235e+00
3.329361017580502846e+00
-1.530898616899150078e+00
-1.263952050862963361e+00
2.586425020948975195e+00
-1.920481912829196114e+00
5.875939021003316221e+00
-1.673676926642148344e-01
2.832988307767395408e+00
5.105923253860269462e+00
-1.511767542883704074e+00
5.111013200844670479e+00
5.182235137487926080e-01
1.443181920165807763e-01
-4.585913326437431325e-01
-5.438972562547180756e-01
-2.195113611853464208e-01
4.664013619594460924e-01
9.263356214411619383e-02
6.592514370336197138e-02
-1.224326041139214838e-01
1.415367653524484126e-01
-1.442112708697078360e-01
-5.215489560995307805e-01
4.538631405753412174e-01
-1.357432408800291479e-01
-1.458706124084032663e-01
-6.942685428603222464e-01
5.246138386770717865e-01
-1.897136915178403715e-01
-2.685878262722006249e-01
4.421568454438260520e-01
-9.658198425054486183e-03
3.138388360705023916e-01
5.576474822372333717e-01
-3.468959554181219596e-01
-3.218505418958544362e-01
2.679192779787776812e-01
-3.579875263341063263e-02
-2.473801435516863600e-01
-1.914553765276533481e-01
-2.814274694826710554e-01
5.696991596230370769e-01
-2.764874506545789701e-01
2.487799542959426846e-01
2.310465322328173199e-01
1.776175648884665836e-01
-3.173244455640378964e-02
3.278224377352197960e-01
-1.997554926898997274e-01
4.779913952960326284e-01
-4.176874134763665647e-01
5.382578270782945040e-01
-7.349895905161317744e-01
-1.319099244348933553e-01
-3.869444672357974513e-01
-5.994312485268764590e-01
1.520624149260462188e-01
1.933443231278916541e-01
-3.687048197861356735e-01
3.761604544365216296e-01
2.980775233339314489e-01
-6.450810440621449482e-01
1.279146516417291601e-01
-6.829544948807126925e-01
-1.844445899315413084e-01
3.612656381823464158e-01
-7.492828847919495994e-01
-3.295455571394141359e-01
-1.625323603281469409e-01
-1.661727816915554157e-01
-5.501832390365277714e-01
-1.944052043665395191e-01
7.105685438130981968e-01
-8.248077036776706450e-01
6.421891922432382271e-01
-2.134289244139719044e-01
3.428787311731987808e-01
-3.645588868409020966e-01
2.243599795102488650e-02
-1.202176359266000916e-01
3.297241128311109021e-02
2.746522152978596032e-01
-3.032432542073592030e-01
1.900828161075934220e-01
-1.377815253359403747e-01
-9.160853134971422285e-02
-1.157991853559964118e-01
3.909815908255197536e-01
6.892772159162344203e-02
-7.186062232950104489e-01
4.856118295907579374e-01
7.863004400023064500e-02
-7.612669715617396970e-02
9.939412717979823064e-02
-3.897357886442744945e-01
-1.043640193332230126e+00
8.569697968741728511e-01
1.355126198017068795e+00
7.579185355369968402e-01
1.647805167531775916e-01
5.465742833619177121e-01
-2.466486167365689486e+00
-2.234021138171397691e+00
-9.605766884675002171e-01
-4.220814073633970764e+00
-8.718497841784749181e-01
-2.965477168161587240e+00
-1.375309463760147899e-01
1.233330059980866977e+00
6.111548837021212321e-01
-1.072573296693196676e+00
-7.441242791202103968e-01
-5.654536476543611245e-01
-1.502938216808406002e+00
4.668537320157913340e-01
-3.219255508818070766e+00
-6.756343938084852230e-01
-2.668477078514281953e-01
5.765789902909288639e-02
-2.197982152899440045e-02
-1.295553735228025249e-01
-7.515015674651003008e-02
6.611951831275131308e-01
3.087041482287855056e-03
5.248529294191872641e-01
2.265559341000617510e-01
4.567726667699412713e-01
6.070444738277035457e-01
-3.268271088982022121e-01
3.280043833836083361e-02
2.976805718064956530e-01
2.401109348806259314e-01
2.862800975859834951e-01
-3.853081487452659770e-01
3.563114148774028100e-01
7.549720514808069272e-01
2.521631092338437186e-01
-5.446626482971956840e-01
-3.896789842467994536e+00
-1.105707536851091133e+00
-4.059661242801066550e+00
3.432659280941207758e+00
-3.524022800184435589e+00
4.079479068008329712e+00
-2.469870010051257836e+00
6.002531109001909115e+00
1.429647659374804647e+01
7.115795281476331446e+00
-7.145055054436331154e-01
-1.909561227971546815e+00
4.129164806431453449e+00
-4.190866684578824497e+00
8.515167016933583355e+00
-2.112740964424617007e-01
4.569087110468693425e+00
5.809384948091720346e+00
-2.405263303196753188e+00
5.758492294360891606e+00
2.000958527595114944e+00
-4.620961673980036877e-01
2.697616633434656852e-01
4.523572861774278198e-01
-5.122451187495820069e-01
-3.409813090976519523e-01
5.807847682692540703e-02
5.152341000908764457e-01
-8.567389184984721892e-03
-6.047098965685488992e-01
-4.804904940970433636e-01
-1.761290502322445384e-01
5.849909416382831351e-02
5.444523091272617243e-01
2.593534567733522533e-01
2.417563401044771354e-01
-3.598304980807985887e-01
4.088437455623120664e-01
-8.586934877615240089e-03
-4.402894680618438250e-01
4.257303887971714551e-01
-1.731235234086202779e-01
1.143160681562608860e-01
5.389267097415022523e-01
-2.817717014958179833e-01
4.526251612050857243e-01
-4.348350064143611249e-01
-1.710989414325233271e-01
4.277722059549832895e-02
1.051434217001684379e-01
-1.480730207017466882e-01
7.993210079068079066e-02
3.529271687149522219e-01
-5.245061097821036578e-01
-4.282082605843984813e-01
-3.553326956663382941e-01
2.347125032749959317e-01
4.676072073048696542e-01
8.923456892361894544e-02
-9.493876212317611807e-02
8.080142486122686707e-01
-4.706772325533611911e-02
-1.340624679617732629e-01
2.490095438138338890e-01
-3.767156110422411053e-01
-4.007411852526810564e-02
-3.384929744495706605e-01
-3.268387464140766197e-01
4.243910518409715338e-01
3.356432655457897707e-01
1.807582769823363744e-01
-4.743846340962125652e-01
-3.740596750863179887e-01
-8.587419713904233254e-02
-4.171736982241208702e-02
4.063888300909554441e-01
-3.229874736801323087e-01
2.451392215849075018e-01
2.629650372059265107e-01
2.287795850175647627e-01
7.238549853179291477e-03
9.043518540340719225e-01
-7.648846368185118205e-01
-9.209860858311225140e-01
-3.349068611486263336e-01
5.948426143730445315e-01
-4.771689938998472935e-01
-2.043505260353918329e-01
-3.203339552926379730e-01
9.067467805560415206e-01
7.759380595115114021e-01
-1.844263003040901572e-01
-7.700896565594994581e-01
4.180889955660215818e-01
6.122737043580579464e-01
-2.181083870084530307e-01
1.390727578760431460e-01
-4.421503507964616997e-01
-9.878967073011613031e-02
5.201344725383345580e-01
-2.278509065463284536e-02
-7.171446484587379322e-01
9.448252098344048777e-01
-3.306522175890851400e-01
-9.513487637010589193e-01
-1.914245675291265797e-02
3.919864800935886628e-01
-6.234080346207455658e-01
3.946717530503831561e-01
-3.656329334453186641e-01
-5.765454749919209088e-02
-4.604523567073581236e-01
4.188776600536177619e-01
3.505948585118875971e-01
-2.350670867415764753e-01
1.619903612556286010e-01
-9.013928665293270415e-01
2.095911150748764329e-01
5.023948208295631046e-01
2.232165441286626251e-01
-7.765272381564351789e-02
-3.541499712818970691e-01
7.026571233365558333e-01
1.336370895008099913e-01
-1.507281234138983517e-01
-7.731183516354297458e-01
-3.249542432263887726e-01
-1.005647386217037587e-01
-2.836885623595538086e-01
-4.769489971977177167e-01
3.546864327963474839e-01
-3.805329066167030261e-01
3.258353859286226561e-01
-4.401446480909592535e-02
-1.540502153008630193e-01
-3.824741183433829628e-01
1.576067978071538089e-01
1.155660341779776390e+00
-2.495187367336627882e-01
-5.076731130201462827e-01
8.289940609724730791e-01
-4.444091444616928011e-02
-2.618932848035900318e-01
-4.840007416373683924e-01
2.203390967101973019e-01
4.419291128994292661e-01
1.332131275055758790e+00
2.514049103347172354e-01
7.413423757658909041e-01
9.469010029369639980e-01
-1.021870670442623502e-01
-4.076540945625367063e-01
2.878100526475090293e-01
1.085686838145082822e+00
-6.055355352184198514e-01
3.229955509035701278e-01
2.821620561797755222e-01
7.342237875761677968e-01
5.938115211811818561e-01
-2.435454622472523756e+00
7.008783079973682772e-01
-1.027826813903741865e+00
-4.349451536541742991e-02
5.428723680281287711e-01
1.801874005100493892e-01
5.078271491802509585e-01
7.202568298903547772e-01
-1.179380519423390561e-01
