1.788438333166875172e+00
-2.094985794282711034e+00
2.450307414488297919e+00
1.099248396931620464e+00
-6.700800894673152319e-01
-1.978337349753964414e-01
5.407344026490698008e-01
-1.362584188713523492e+00
5.987616456138259435e-01
5.344221181030397450e-01
-3.769543185143185982e-01
-5.420398280077844078e+00
1.432064351521039391e+00
6.049307434696109098e+00
6.953004497090542468e-01
1.237417548851976523e+00
-5.029812452007359491e-01
2.666008448269800102e+00
1.020192449814681490e+00
2.660618386506840016e-01
-6.217759100768566194e-01
2.423126197413913996e-01
7.903446046516618972e-01
3.586244170513561702e-01
1.475406351761442192e+00
3.226087763766000704e-01
4.766265617522624787e-01
1.614364732543051018e-01
2.238918006194022681e+01
6.238466771372782604e-01
7.569719084441433044e-01
2.693291169560887433e+00
-3.476595826495394892e+00
1.690693653099590854e+00
4.768595000432553910e+00
6.265887091002427800e-01
3.221167459563853974e+00
5.685359567565656524e-01
4.019787317741579713e+00
-1.360294076561971321e+00
3.496424232333955384e+00
1.840312678519853806e+00
4.182217200348634201e+00
5.850669710167421655e+00
1.430938599770922615e+01
2.699490422609755136e+00
-2.896112785866985728e+00
1.502785889517731954e+00
5.039207139684305226e+00
7.040328739832872884e+00
5.863077243894771584e+00
-9.419605940684160350e-01
2.634045120343607049e+00
1.081100690643328255e+00
5.875554336706348968e-01
4.632152916996346015e+00
-4.602529860824716046e+00
-2.384658293079226166e+00
6.552630548986266845e+00
-5.878345168093351836e-01
-1.027644814511842197e-01
1.160073773110515960e+00
-1.563704688017803379e+00
1.245090429957488087e+00
7.899362953913794394e-01
1.495051605298222785e+00
1.583705031511893235e+00
-2.663884662420930027e+00
4.774918449686583521e+00
3.529489946572370723e-02
7.431209487959474558e+00
-2.907129988980012292e-01
9.171634620117589121e-01
-1.154852470521624763e+00
1.135977711787208300e+00
1.086506448764782862e+00
-1.467409131974132031e+00
-2.750958874585835434e-01
2.631660673598972711e+00
4.667175897584478150e+00
6.151444435136951938e+00
3.217042331479389450e-01
3.156583363118443120e-01
8.891734161450592921e-01
-2.209693142653452180e-01
1.573480626410524330e+00
-1.063698226442427508e+00
1.164266410183192324e+00
1.472396997686836295e+00
6.947028547492285488e-01
1.564124866666775748e+00
1.817611829506734722e+00
3.947271471954681310e+00
-3.510629475336849659e+00
2.322033549107489492e+00
2.930387021711134965e-01
1.047839511279775815e+00
4.885099558864272495e+00
7.647294228369802660e+00
2.916837458782844283e+00
-3.237588974289742350e+00
2.145859586773657401e+00
8.972587929908929505e-01
5.864328400293525867e-01
-1.187503785942127577e+00
3.781098026566205306e-01
3.850769881400036843e-01
1.655470258884292223e+00
1.054503894845275402e+00
8.183615424597029397e-01
9.461417114341585943e-01
2.364338240718836803e-01
2.105625215998731292e+01
6.376738144200766456e-01
-1.774516561959438854e-01
1.144709999708115600e+00
4.438926370101319852e-01
-7.528938666382606337e-01
1.988544986821600136e-01
4.592068177207904611e+00
1.701920432603189759e-01
3.958543671897200855e-02
-2.309998495757009940e-01
-5.906445826530990484e-01
-4.727706952543008767e-01
6.602933654307892308e-02
3.008735960368671414e-01
6.474937210421150002e-01
-3.356650840882461906e-01
9.134954529672774381e-02
-4.179329845939303567e-01
-2.947666872162117979e-01
5.147583891803275691e-01
-3.344043890037877720e-01
-1.704454988381465530e-01
-2.563294655835822722e-01
-4.438246467782552829e-01
-3.798782282761256623e-01
-3.785107026270325692e-01
5.212079202743551132e-02
-1.805200058947430131e-01
2.141807199225311681e-02
4.731970597060668193e-02
-6.765627073414000048e-01
2.228858387423636178e-01
-4.552355336132342667e-01
-2.317997500984664283e-01
-1.855905781673298782e-01
5.353622178349274341e-01
3.852946085298631501e-02
5.668769545567358126e-01
-2.799626941929477253e-01
-8.887808040757660955e-02
-1.656262543718438618e-01
-5.052673250211934253e-01
1.552166571950113275e-02
4.465314689539323090e-01
2.199980568598192965e-01
3.155245523705861310e-01
4.789997080890471270e-01
1.072024348076185268e-01
-5.376159540734052333e-01
-2.849337009887092931e-02
5.539326627523322166e-02
-9.194404568916324516e-01
1.565594054006245628e+00
3.851858482718620857e-01
1.762530612725164425e-01
5.067606826409352117e-01
8.542078265710931761e-01
2.197175141737059134e-01
1.117209293853824281e+00
5.914397291890799435e-01
5.615410846900215081e-01
1.650176316014386968e+00
-8.420383235176956971e-01
1.314274122102510045e+00
1.291405702130917765e+00
9.476083576141450804e-01
1.720549243267099904e+00
7.976644836369659042e-02
1.697931951277963813e+00
-1.725812883443217927e-01
-4.757929798868230920e-02
2.949294404415790938e-01
-2.681210885724724768e+00
3.428042927368447901e-02
-7.041582157060699565e-01
1.149290819773427152e+01
-3.686239476808981230e-01
2.449033439248466504e+00
-5.770675763555557225e-01
7.606795476667944644e-01
7.747590738885345996e-01
9.115093690306205199e-01
7.957096313514781194e+00
-4.651914669466396535e-01
1.283271233376094722e+00
-4.140132722548075517e-01
-3.876364678248889750e-01
2.373929332717304330e+00
1.032116720508932772e+00
1.030461947698658598e+01
-4.421253194829352751e+00
5.029127582922737760e-01
2.000596906862183721e-01
1.073845566052592237e-01
5.600617240425289634e-01
-2.549983064927671683e-01
4.283925427658643592e-01
-7.964425822016132361e-01
4.810297286735976119e-01
1.059411234711941791e-01
-6.314541444714012464e-01
-5.506783631356507724e-01
-6.441952212927666288e-01
2.120118136552628652e-01
-2.648403236920903736e-01
-2.179345080029830017e-01
-1.320439273720892537e-01
-2.536088643898902761e-01
2.401022763891965950e-01
-2.254686901899980722e-01
6.703307770614803651e-01
-1.150144011796355281e+00
-2.366675307642686354e-01
-5.067211134181420773e-01
2.645265103396069462e-01
-7.534981908651695592e-01
-5.326884624087651066e-01
1.596493026471088039e-01
-4.571552819926755218e-01
-4.760830518587152449e-01
-4.307047314882619382e-01
-4.679079957736849149e-01
1.948907194292590073e-01
-1.868038813398371634e-01
-1.246072683389049418e+00
4.708663495098276419e-01
-9.802819872144954427e-01
-1.250094246246177543e-01
1.192642911555395757e-01
-1.056334361859490478e+00
-9.788217823130725137e-02
-1.206922830104471656e+00
1.289432165608556113e-01
-2.486013881947157333e+00
4.720180145613792067e-02
-3.056717429730672286e+00
2.533342467882613303e+00
-2.475399633933968335e+00
4.291036726829541514e+00
-2.683815614930719740e+00
3.255668018729716895e+00
8.687061791148886769e+00
3.329525603444150494e+00
-1.530707148509096172e+00
-1.263811320440648478e+00
2.586433757420715907e+00
-1.920372038037013951e+00
5.876057763152451763e+00
-1.671807937789789311e-01
2.833056373644665449e+00
5.106128579012124469e+00
-1.511616164684852048e+00
5.111208342850467545e+00
5.181154745673184348e-01
1.441825307760548625e-01
-4.587387034931877383e-01
-5.440766482780605706e-01
-2.196206031241736689e-01
4.662858122083125556e-01
9.250340259176099977e-02
6.580090757979870086e-02
-1.225647572395952151e-01
1.414328465283657965e-01
-1.443416309963516664e-01
-5.216830029406549496e-01
4.537742472059709820e-01
-1.358956345928759857e-01
-1.460232083503150424e-01
-6.943886905032029544e-01
5.245056119932176575e-01
-1.898280014733727539e-01
-2.686721029076214462e-01
4.420439392142048729e-01
-9.769234035651924025e-03
3.137731064388125102e-01
5.575658917072922049e-01
-3.469808027707323994e-01
-3.219542515233808633e-01
2.678619710245269125e-01
-3.586855585502778110e-02
-2.474778597684527126e-01
-1.915342922481243215e-01
-2.815076871411075765e-01
5.696656957703772894e-01
-2.765646651928638233e-01
2.486978504157021930e-01
2.310037590983970990e-01
1.775355738677705797e-01
-3.181377664333830124e-02
3.277607389717799857e-01
-1.998264621081827230e-01
4.779158719534263855e-01
-4.177278504523790903e-01
5.381848067450598627e-01
-7.350682919014531747e-01
-1.319285056649586729e-01
-3.871421594696251023e-01
-5.996231736255273059e-01
1.518462006925513919e-01
1.931358977184389203e-01
-3.688765770678663625e-01
3.759574870148260084e-01
2.978693633423239451e-01
-6.452922598324185577e-01
1.277303919905916074e-01
-6.831718389339601627e-01
-1.846672256089580688e-01
3.611028654886795919e-01
-7.494786645735829200e-01
-3.297326046721161252e-01
-1.627122670213781708e-01
-1.663517714231071698e-01
-5.503633193746038099e-01
-1.945794651279274257e-01
7.103831877275557094e-01
-8.250025821862618791e-01
6.420053137234416063e-01
-2.135684424887850097e-01
3.427465210838657184e-01
-3.646896176155413061e-01
2.225663129083367553e-02
-1.203383810381074420e-01
3.282380463633734896e-02
2.745273803813559899e-01
-3.033861123669442938e-01
1.899135503408403702e-01
-1.379235039401208729e-01
-9.174753810745732430e-02
-1.159249075123067185e-01
3.908575648113831180e-01
6.879369106139970880e-02
-7.187632618415975561e-01
4.854597662224913734e-01
7.847669514113043976e-02
-7.630702190753196890e-02
9.924744680771453720e-02
-3.898748732164958875e-01
-1.043809190049085123e+00
8.569956516977521588e-01
1.355139014815363696e+00
7.579400330298112776e-01
1.647960382717005012e-01
5.466021368971225591e-01
-2.466570835239007220e+00
-2.234039207019761442e+00
-9.606127609717493021e-01
-4.220556007828036194e+00
-8.718044495975375563e-01
-2.965534367649871328e+00
-1.375108475744177827e-01
1.233334017865122867e+00
6.111749723523924871e-01
-1.072529268867998375e+00
-7.440624945174916238e-01
-5.654749431543085736e-01
-1.503283384108587750e+00
4.669106333580933521e-01
-3.219404220908746783e+00
-6.756655355227058068e-01
-2.668274411615473851e-01
5.767255315137321398e-02
-2.197557148530882368e-02
-1.295333192863102056e-01
-7.509818910927905378e-02
6.612542759230590761e-01
3.120036089483579911e-03
5.248748930566172755e-01
2.265675358605937217e-01
4.567905459136827884e-01
6.070706508870981066e-01
-3.267597834198178730e-01
3.281189439243131084e-02
2.976900164570286944e-01
2.401583814863289812e-01
2.863371850862859724e-01
-3.852789763267474576e-01
3.564003345997175942e-01
7.550207643959738757e-01
2.522375456649552095e-01
-5.445890267793670469e-01
-3.896821067239694791e+00
-1.105756203920731373e+00
-4.059703180013100265e+00
3.432785514016877482e+00
-3.524014453188505147e+00
4.079864849872398835e+00
-2.469765506561830914e+00
6.002915571291421060e+00
1.429718458900443601e+01
7.116213680380393036e+00
-7.141256826742988784e-01
-1.909574263034389041e+00
4.129409913688485645e+00
-4.190961934229708419e+00
8.515501731298138921e+00
-2.112124150606242701e-01
4.569412800108699102e+00
5.809695457634545868e+00
-2.405225671497714046e+00
5.758794578552568488e+00
2.001076102562720394e+00
-4.623140012246571007e-01
2.695435092149228162e-01
4.521591221226931578e-01
-5.125415414101269773e-01
-3.412170232986496687e-01
5.785171683768022127e-02
5.149956229716051714e-01
-8.788746401033852018e-03
-6.050251453703360260e-01
-4.807172268285480055e-01
-1.763564657645928790e-01
5.821017054293873422e-02
5.442362014839292605e-01
2.591312212999239417e-01
2.414923725406437627e-01
-3.600884113320007018e-01
4.086244641710436998e-01
-8.929769988469631395e-03
-4.405281172526735456e-01
4.254771704462287363e-01
-1.734808181824373519e-01
1.142721680563729414e-01
5.388772683244542616e-01
-2.818337444440446871e-01
4.525982654832584884e-01
-4.348628007614477875e-01
-1.711440834703352176e-01
4.274527583064852837e-02
1.051007333573984459e-01
-1.480840469934752990e-01
7.989332826102174545e-02
3.528886175941522985e-01
-5.245131614470380788e-01
-4.282565779811243756e-01
-3.553833913512448595e-01
2.346874814582173285e-01
4.675779355178521501e-01
8.919231590386240971e-02
-9.494974982950268871e-02
8.079808003587354293e-01
-4.709341343101797195e-02
-1.340561844910451716e-01
2.488791145459729459e-01
-3.768412496706958215e-01
-4.020154407041520717e-02
-3.386440843347624519e-01
-3.269510351918984425e-01
4.242537503715815284e-01
3.355259928321956964e-01
1.806244631553594604e-01
-4.745269461375976605e-01
-3.741900217206008961e-01
-8.599752521243179959e-02
-4.182831624765404044e-02
4.062652150867115952e-01
-3.231145006550477095e-01
2.450044512882836867e-01
2.628299451898190031e-01
2.286375046245820719e-01
7.078992429390047053e-03
9.042190534519233269e-01
-7.650115264118170222e-01
-9.211114326701304034e-01
-3.349478724759818449e-01
5.948070776309323238e-01
-4.772101642196309723e-01
-2.044130380115122825e-01
-3.203601178886479883e-01
9.067280669292627771e-01
7.759153226383761481e-01
-1.844658290886810603e-01
-7.701720562041224349e-01
4.180445325973409232e-01
6.122588746834151108e-01
-2.181380723625996609e-01
1.390635428399050744e-01
-4.421822380615206272e-01
-9.883973062897791206e-02
5.200895975559781670e-01
-2.282246136528126232e-02
-7.172608367191875001e-01
9.447781438303332058e-01
-3.306664721450861544e-01
-9.514122761005419093e-01
-1.924556985922360255e-02
3.918900693438548966e-01
-6.235276474032236393e-01
3.945890947273890670e-01
-3.657334888101301806e-01
-5.776385500979525772e-02
-4.605765089358428988e-01
4.187731309531987911e-01
3.505263887180563587e-01
-2.351698234316471348e-01
1.618695712929047736e-01
-9.014952520929917501e-01
2.094953577522987165e-01
5.023097967176126666e-01
2.231294134772938420e-01
-7.776158515362949220e-02
-3.542426176518652658e-01
7.026026375137318647e-01
1.335229439050519551e-01
-1.508234109213287544e-01
-7.731950118343976497e-01
-3.250038981129765303e-01
-1.006321899186644470e-01
-2.837609616016680270e-01
-4.769601122818636907e-01
3.546288741664844757e-01
-3.805843146840923175e-01
3.258207326438193330e-01
-4.405816351243256601e-02
-1.541078831153537554e-01
-3.825217007986942419e-01
1.575751933310024500e-01
1.155646191639090770e+00
-2.495935540415902265e-01
-5.077516430457855723e-01
8.289619607810345681e-01
-4.446629378080030337e-02
-2.619600662331772467e-01
-4.840850321385414823e-01
2.203144708122755646e-01
4.418551809460318225e-01
1.332169006527112121e+00
2.513407073851642859e-01
7.411867723024099242e-01
9.467693946847463016e-01
-1.022527225315325444e-01
-4.077248346994193917e-01
2.876608908337409676e-01
1.085512914996689782e+00
-6.055710586819416097e-01
3.228522203754855546e-01
2.820393193775065366e-01
7.340274414151728433e-01
5.936525210395403596e-01
-2.435521360954611136e+00
7.007970387153070746e-01
-1.027888547408825515e+00
-4.349821147950815037e-02
5.427544600482221426e-01
1.800465094582321401e-01
5.077185212806435421e-01
7.201127230600495865e-01
-1.179383730487384291e-01
